{"learner":{"attributes":{"best_iteration":"99","best_ntree_limit":"100","scikit_learn":"{\"use_label_encoder\": null, \"n_estimators\": 100, \"objective\": \"binary:logistic\", \"max_depth\": 10, \"max_leaves\": null, \"max_bin\": null, \"grow_policy\": null, \"learning_rate\": 0.15, \"verbosity\": null, \"booster\": null, \"tree_method\": null, \"gamma\": null, \"min_child_weight\": 2, \"max_delta_step\": null, \"subsample\": 0.6, \"sampling_method\": null, \"colsample_bytree\": 0.8, \"colsample_bylevel\": null, \"colsample_bynode\": null, \"reg_alpha\": null, \"reg_lambda\": null, \"scale_pos_weight\": null, \"base_score\": null, \"missing\": NaN, \"num_parallel_tree\": null, \"random_state\": null, \"n_jobs\": null, \"monotone_constraints\": null, \"interaction_constraints\": null, \"importance_type\": null, \"gpu_id\": null, \"validate_parameters\": null, \"predictor\": null, \"enable_categorical\": false, \"feature_types\": null, \"max_cat_to_onehot\": null, \"max_cat_threshold\": null, \"eval_metric\": null, \"early_stopping_rounds\": null, \"callbacks\": null, \"classes_\": [0, 1], \"n_classes_\": 2, \"_estimator_type\": \"classifier\"}"},"feature_names":["income","name_email_similarity","prev_address_months_count","current_address_months_count","customer_age","days_since_request","intended_balcon_amount","zip_count_4w","velocity_6h","velocity_24h","velocity_4w","bank_branch_count_8w","date_of_birth_distinct_emails_4w","credit_risk_score","email_is_free","phone_home_valid","phone_mobile_valid","bank_months_count","has_other_cards","proposed_credit_limit","foreign_request","session_length_in_minutes","keep_alive_session","device_distinct_emails_8w","month","payment_type_AA","payment_type_AB","payment_type_AC","payment_type_AD","payment_type_AE","employment_status_CA","employment_status_CB","employment_status_CC","employment_status_CD","employment_status_CE","employment_status_CF","employment_status_CG","housing_status_BA","housing_status_BB","housing_status_BC","housing_status_BD","housing_status_BE","housing_status_BF","housing_status_BG","source_INTERNET","source_TELEAPP","device_os_linux","device_os_macintosh","device_os_other","device_os_windows","device_os_x11"],"feature_types":["float","float","int","int","int","float","float","int","float","float","float","int","int","int","int","int","int","int","int","float","int","float","int","int","int","int","int","int","int","int","int","int","int","int","int","int","int","int","int","int","int","int","int","int","int","int","int","int","int","int","int"],"gradient_booster":{"model":{"gbtree_model_param":{"num_parallel_tree":"1","num_trees":"100","size_leaf_vector":"0"},"tree_info":[0,0,0,0,0,0,0,0,0,0,0,0,0,0,0,0,0,0,0,0,0,0,0,0,0,0,0,0,0,0,0,0,0,0,0,0,0,0,0,0,0,0,0,0,0,0,0,0,0,0,0,0,0,0,0,0,0,0,0,0,0,0,0,0,0,0,0,0,0,0,0,0,0,0,0,0,0,0,0,0,0,0,0,0,0,0,0,0,0,0,0,0,0,0,0,0,0,0,0,0],"trees":[{"base_weights":[-6.555922E-3,-8.038565E-1,1.0690864E0,-1.0642195E0,7.846902E-1,1.2978008E0,-1.4138125E0,-1.2018955E0,8.120705E-1,1.0775669E0,-6.8665665E-1,1.472292E0,-4.1634023E-1,-1.5405964E0,1.0167598E0,-1.5125983E0,-4.552239E-1,1.140022E0,-6.0952383E-1,1.4559458E0,-3.93586E-1,-9.719149E-1,1.3865031E0,1.6401076E0,-5.1003283E-1,1.8216561E0,-7.550692E-1,-1.6528163E0,1.0704225E0,1.2418301E0,-2.6666668E-1,-1.6921259E0,-1.0109502E0,7.338575E-2,-1.340519E0,1.336925E0,-3.974359E-1,-1.1291139E0,2.5941423E-1,1.5506763E0,-7.079646E-1,-6.13033E-1,1.6691729E0,-1.1800554E0,1.4166666E0,1.483871E0,-3.3333334E-1,1.6808324E0,-1.334852E0,-7.78098E-1,1.556962E0,-2.7027026E-1,1.9817351E0,-9.363035E-1,1.4453782E0,-1.6941323E0,1.1836735E0,2.9787233E-1,1.3939394E0,1.496063E0,-0E0,-1.1578947E0,9.3333334E-1,-1.7193192E0,7.953668E-1,-6.073171E-1,-1.5649986E0,-8.547611E-1,6.2170863E-1,-1.6581589E0,-6.1165684E-1,1.6420946E0,-8.888889E-3,5.3846157E-1,-1.3E0,-1.3168044E0,8.888889E-1,-4.5454547E-1,6.5806454E-1,1.6228548E0,-8.4210527E-1,-1.1823205E0,1.1020408E0,-9.706546E-1,2.7146813E-1,6.666667E-1,1.9230769E0,-1.6356877E0,-7.249545E-1,-8.5714287E-1,1.7209302E0,1.7241379E0,6.976744E-1,1.7589041E0,6.945036E-1,-1.6190476E0,1.3636364E0,1.7823129E0,-9.4138235E-1,1.7275985E0,2.4390244E-1,1.5294118E0,-1.5E0,-1.125E0,1.0355731E0,-1.25E-1,1.6571429E0,-1.8507055E0,-1.347181E0,-2.857143E-1,1.5897436E0,1.6190476E0,-6.666667E-1,1.7460318E0,7E-1,1.6666666E0,4.347826E-1,-1.0769231E0,6.666667E-1,-1.5725745E0,-1.9081403E0,-4.0268455E-2,1.8596492E0,-1.2610441E0,-1.6234653E-1,-1.6091168E0,7.0422536E-1,-2.567237E-1,-1.5104237E0,1.0349548E0,-7.986577E-1,-1.4714912E0,-1.8584284E0,-3.7931034E-1,-1.7647059E0,1.728382E0,-3.255814E-1,-8.8E-1,8.471616E-1,-7.1428573E-1,1.1923077E0,-1.5395683E0,2.4E-1,-1.6989248E0,-8.9502764E-1,1.7037038E0,-1.0769231E0,-9.2957747E-1,1.2380953E0,-1.2903225E-1,1.1340206E0,1.6746016E0,-4.1269842E-1,-1.3E0,7.777778E-1,-1.4630872E0,1.1111111E-1,1.6E0,-7.692308E-1,-1.2263374E0,2.1118012E-1,-1.4920635E0,6.357616E-1,1.4782609E0,-8.5714287E-1,-1.7511111E0,-1E0,-1.4971429E0,-3.5978836E-1,6.666667E-1,1.84E0,6.086956E-1,1.9175258E0,-8.235294E-1,1.4666667E0,1.8503624E0,1.156386E0,1.949367E0,1.487805E-1,-1.7402598E0,1.3333334E0,-3.3333334E-1,1.7777778E0,-2.857143E-1,1.9416058E0,-1.4347826E0,-1.89011E-1,1.8102766E0,8E-1,1.0909091E0,-6.086956E-1,-1.5710595E0,-4.814815E-1,2.4719101E-1,1.4285715E0,-1.0588236E0,7.368421E-1,1.7473685E0,6.666667E-1,-1.8573388E0,-2.857143E-1,-1.4059004E0,6.25E-1,6.666667E-1,1.7419355E0,-1.2E0,2.857143E-1,6.666667E-1,1.8545455E0,-3.1578946E-1,1.36E0,1.826087E0,6E-1,-2.857143E-1,1.0769231E0,-0E0,1.0769231E0,-1.823057E0,-1.3217471E0,-1.909998E0,-1.3333334E-1,-9.361702E-1,1.3898305E0,-1.7286296E0,-9.833201E-1,2.004158E-1,-1.8041431E0,-1.8370371E0,-1.4107709E0,-8.235294E-1,1.1034483E0,9.8207325E-2,-1.5294118E0,-1.6360924E0,-3.4666666E-1,1.3985401E0,-8.2985073E-1,-1.4413793E0,-1.8831168E-1,-1.4797136E-1,-1.8608942E0,-1.8788627E0,-1.0943396E0,-1.2E0,-4.5454544E-3,-1.8461539E0,-7.2E-1,6.3247865E-1,1.7968397E0,-9.62963E-1,6.666667E-1,-1.6E0,-2.9457363E-1,-1.3939394E0,1.2E0,-1.483871E0,2.0689656E-1,1.3333334E-1,1.5384616E0,-1.6641221E0,3.3333334E-1,-1.3846154E0,1.5E0,-5.6E-1,-1.8303031E0,-1.2897196E0,-3.0769232E-1,-1.2380953E0,1E0,5.945946E-1,-1.0344827E0,1.5362319E0,1.25E-1,1.7716937E0,8.647619E-1,-7.6635516E-1,1.3043479E0,-1.5047619E0,1.0526316E-1,-1E0,1.4285715E0,-2.2222222E-1,-1.6825397E0,-1E0,8.333333E-1,-1.3342817E0,1.4666667E0,7.241379E-1,-1.0204082E0,-1.8139535E0,-6.666667E-1,8.218182E-1,-1.0967742E0,-1.5384616E-1,-1.7823129E0,-1.3548387E0,-2.3529412E-1,4E-1,-1.6341463E0,-1.018405E0,1.369863E-1,-3.3333334E-1,1.2E0,1.8673292E0,4.3870968E-1,3.3195022E-1,1.4244995E0,8.888889E-1,1.9655668E0,-4.6800733E-1,1.3745455E0,-1.7771883E0,-0E0,-1.5471698E0,1.1864407E0,2.72E-1,-1.183391E0,1.4666667E0,1.9520959E0,-2.857143E-1,1.4E0,1.4285715E0,3.3333334E-1,-1.2E0,3.3333334E-1,-1.6402116E0,1.2E0,-1.2705883E0,-1.1827957E-1,-7.027027E-1,8.5714287E-1,5.185185E-1,1.5586207E0,1.2941177E0,1.8601398E0,-0E0,1.3333334E0,-1.8623222E0,-3.3333334E-1,-1.0517242E0,-1.7093691E0,-8.5714287E-1,1.4545455E0,-3.3333334E-1,1.3333334E0,-1.8372093E0,-3.768116E-1,-1.0844482E0,-1.9368535E0,-1.9187449E0,-1.5744681E0,-1.4871795E0,1.4E0,-4.6153846E-1,1.76E0,1.3333334E-1,-1.7575758E0,-1.2041025E0,-2.2222222E-1,-6.4131814E-1,6.098765E-1,-1.8240918E0,-3.3333334E-1,-1.9083004E0,-1.5654596E0,-1.754717E0,-1.127619E0,1.3636364E0,2.2222222E-1,8.6633664E-1,-1.1983298E0,-1.6590164E0,-7.1428573E-1,-1.7924151E0,-1.1603498E0,1.2612613E-1,-1.5348837E0,1.5152253E0,-1.2827586E0,-6.2676054E-1,-1.8867924E0,-1.5418181E0,3.529412E-1,3.629764E-3,-1.7101449E0,1.52E0,-1.6412556E0,-1.8684775E0,-5.714286E-1,-1.8852868E0,-8.888889E-1,3.3333334E-1,-1.3777778E0,-1.6190476E0,-7.2164947E-1,1.956798E-1,-1.628866E0,-1.8761061E0,-6.666667E-1,-1.2E0,-0E0,-2.0289855E-1,1.6923077E0,1.8297873E0,5.4054055E-2,-1.1818181E0,-0E0,1.36E0,-6.666667E-1,-1.6956521E0,-3.3333334E-1,-6.666667E-1,1.1428572E0,-3.3333334E-1,-1.68E0,1.3978494E0,-1.1111112E0,-4.7619048E-1,1.3333334E0,-5.4545456E-1,1.3333334E0,1.6969697E0,5E-1,-1.7704918E0,-1.5384616E-1,-1.25E0,4.6153846E-1,-1.4343435E0,3.3333334E-1,-1.0909091E0,6.315789E-1,-0E0,-1.7333333E0,1.2307693E0,-6.666667E-1,-1.4285715E0,-0E0,8.333333E-1,1.755102E0,-1E0,1E0,7.936508E-1,1.8147879E0,1.8110236E0,5.572139E-1,-1.3142858E0,2.4390244E-1,-1.5876288E0,-3.3333334E-1,-1.0588236E0,8.5714287E-1,-1.7966101E0,-0E0,1.3846154E0,1.3333334E-1,3.508772E-2,-1.4461539E0,9.5327103E-1,-1.3846154E0,-1.3170732E0,3.3333334E-1,-0E0,-1.1428572E0,9.6875E-1,-9.5652175E-1,-1.4782609E0,-0E0,-5.714286E-1,-1.8051044E0,-1.5102041E0,-5.882353E-1,-1.1428572E0,3.3333334E-1,-1.6903226E0,-4.6153846E-1,9.4736844E-1,-1.2432432E0,1.4782609E0,-2.1468927E-1,1.8776813E0,9.064748E-1,-2.0618556E-1,1.4666667E0,-3.5494882E-1,1.3821989E0,1.488764E0,-4.07767E-1,-8.4607106E-1,1.6213018E0,1.5089109E0,-1.2244898E-1,-1.8202248E0,-8.8E-1,-1.6012365E0,6.2857145E-1,1.372549E0,-0E0,-7.692308E-1,6.935123E-1,-1.3093525E0,1.4666667E0,5.4545456E-1,1.6666666E0,-1.6595745E0,1.3333334E0,1.5E0,-0E0,-1.3902439E0,1.5E0,2.581888E-1,-9.694323E-1,3.529412E-1,-1.3333334E0,1.3142858E0,8E-2,-5.714286E-1,1.2941177E0,3.529412E-1,1.6666666E0,1.5121951E0,2.857143E-1,-9.62963E-1,-1.8701298E0,-1.2182741E0,-1.0810811E-1,-1.7782341E0,-7E-1,-1.8700528E0,-1.4033613E0,1.5555556E0,-9.818182E-1,-7.2593737E-1,-1.5038619E0,-1.9577073E0,-9.0909094E-1,-1.9215606E0,-1.2727273E0,1.0769231E0,-1.6776557E0,-1.6571429E0,-0E0,-1.8338462E0,-1.05E0,-1.25756E0,1.6E0,-7.0212764E-1,6.5384614E-1,-3.2302406E-1,-1.507109E0,-7.172996E-1,8.3489543E-1,-1.8368932E0,-6.666667E-1,-1.1515151E0,-1.9223301E0,-0E0,-1.6289855E0,-1.7962734E0,-8.9361703E-1,-7.692308E-1,-1.5435685E0,1.6470588E0,2.857143E-1,1.0909091E0,-1.8125E0,-1.5789474E0,-7.79661E-1,-1.3333334E-1,-1.7142857E0,-1.5789474E0,-2.4390244E-1,-1.811282E0,-9.677419E-1,-1.6842105E0,-7.2820514E-1,6.666667E-1,-1.5714285E0,-6.666667E-1,-1.75E0,1.582891E0,-1.1058824E0,-1.5333333E0,-6.896552E-2,-1.6261683E0,-3.9139786E-1,-9.2413795E-1,-1.7457212E0,-7.5E-1,1.0909091E0,1.9959266E-1,-1.5E0,-1.8644068E0,-5.714286E-1,1.9548023E0,-1.5555556E0,-5.714286E-1,-1.758794E0,-1.8734723E0,-6.666667E-1,-1.75E0,-3.529412E-1,1.1764706E-1,-1.7360406E0,-9.3457945E-2,-1.4285715E0,-4.7058824E-1,6.14433E-1,-1.8117647E0,-2.5E-1,-1.2631578E0,9.714286E-1,1.8181819E0,6.666667E-1,1.8428653E0,-6.666667E-1,-1.4285715E0,8.148148E-1,-6.666667E-1,-1.6190476E0,-8.5714287E-1,-1.84E0,5.365854E-1,-1.3529412E0,-0E0,1.6E0,1.5280899E0,-1E0,1.5384616E-1,-1E0,-1E0,-0E0,-6.666667E-1,-1.8245614E0,-0E0,-1.5604396E0,-2E-1,-1.5714285E0,-4.4444445E-1,1.3333334E0,-6.666667E-1,5.714286E-1,4.6153846E-1,1.5294118E0,1.4666667E0,-1.5384616E-1,3.3333334E-1,1.3333334E0,1.7288135E0,3.5820895E-1,1.8212291E0,-1E0,1.9322034E0,1.5384616E-1,1.2592592E0,8.196721E-2,-1.483871E0,-0E0,-9.4736844E-1,1.0769231E0,-1.8181819E0,-9.714286E-1,-1.8545455E0,-6.666667E-1,-1.1428572E0,1.030303E0,-2.4390244E-1,-1.5171288E0,-2.6086956E-1,1.2272727E0,-3.3333334E-1,-1.5151515E0,1.1851852E0,-1.8181819E-1,-1.4666667E0,-0E0,-1.7948718E0,-2.857143E-1,8.5714287E-1,-2.857143E-1,-6.666667E-1,-1.7278912E0,-1.4117647E0,5E-1,1.7837838E0,1.5384616E-1,-1.4285715E0,1.5827338E-1,1.7359914E0,1.9368135E0,2.0512821E-1,1.7460318E0,-6.5E-1,1.6842105E0,1.6470588E0,3.6363637E-1,1.887324E0,-6.589595E-1,1.4796748E0,-1.0588236E0,1.2561324E0,1.8544132E0,-1.0555556E0,9.714286E-1,-1.5384616E0,-1.4193548E-1,1.7E0,1.5384616E-1,1.2356688E0,1.9179487E0,-7.027027E-1,1.25E0,-1.8483965E0,-8.235294E-1,-1.25E0,-1.5384616E-1,-1.6561233E0,-4.6153846E-1,-5.263158E-1,1.6E0,1.6571429E0,6E-1,4.6153846E-1,-1.2238806E0,-9.62963E-1,9.1183877E-1,-4.0816326E-2,-1.5536481E0,1.4285715E0,-6.666667E-1,-1.6805369E0,4.4444445E-1,-1.4482758E0,4.6153846E-1,-3.4024897E-1,7.659575E-1,-1.1469195E0,9.0909094E-1,2.857143E-1,1.68E0,1.3846154E0,-1E0,3.3333334E-1,1.7419355E0,-1.5789474E0,3.3333334E-1,-1.880851E0,-1.2E0,-1.546798E0,-8.5128206E-1,1.1764706E0,-1.0909091E0,-1.8079332E0,-0E0,-1.4782609E0,2.857143E-1],"categories":[],"categories_nodes":[],"categories_segments":[],"categories_sizes":[],"default_left":[1,1,1,1,1,1,1,1,1,1,1,1,1,1,1,1,1,1,1,1,1,1,1,1,1,1,1,1,1,1,1,1,1,1,1,1,1,1,1,1,1,1,1,1,1,1,0,1,1,1,1,1,0,1,1,1,1,1,1,1,1,0,0,1,1,1,1,1,1,1,1,1,1,1,1,1,1,1,1,1,1,1,1,1,1,1,0,1,1,0,1,1,1,1,1,1,1,1,1,1,1,0,0,1,1,1,1,1,1,0,1,0,1,1,1,1,1,0,1,1,1,1,0,1,1,1,1,1,1,1,1,1,1,1,1,1,1,1,1,1,1,1,1,1,1,0,0,1,0,1,1,1,1,1,1,1,1,0,0,1,1,1,1,0,0,1,1,1,1,0,0,1,0,0,0,1,1,1,1,1,0,0,0,0,0,1,1,1,1,1,1,1,1,1,1,0,0,1,1,1,0,1,1,0,0,0,0,0,0,0,0,0,1,0,0,0,0,1,1,1,0,1,1,1,1,1,1,1,1,0,1,1,1,1,1,1,1,1,1,1,1,1,1,1,1,1,1,1,1,1,1,1,1,1,1,0,1,1,1,1,0,0,0,1,0,1,1,1,0,1,1,1,1,1,1,1,0,1,0,0,0,1,1,0,1,1,0,1,1,0,1,1,1,0,1,1,1,0,1,1,1,0,0,1,1,1,1,0,0,1,1,1,0,1,1,1,1,1,0,0,0,0,0,0,0,1,1,1,1,1,1,1,1,1,0,0,0,1,0,1,1,0,0,0,0,1,1,1,1,1,1,1,0,0,0,0,1,1,1,1,1,1,0,1,1,1,1,1,0,1,1,1,1,1,1,1,1,1,1,1,0,1,1,1,1,1,1,1,0,0,0,0,1,1,1,1,1,0,0,0,0,1,1,1,1,1,0,0,0,1,0,1,1,0,0,1,0,1,0,1,0,0,0,1,0,0,0,1,0,1,1,1,0,1,0,0,0,1,0,0,1,1,1,1,1,1,1,1,0,0,0,1,0,0,0,1,1,1,0,1,0,0,0,1,1,0,0,0,0,1,0,0,1,1,0,0,1,1,1,1,1,1,1,1,1,1,1,1,1,1,1,1,1,1,1,1,0,1,1,1,0,1,0,1,0,0,0,1,0,1,1,0,0,1,1,0,0,0,1,0,0,1,1,1,1,1,1,0,0,0,0,0,0,0,0,0,0,0,0,0,0,0,0,0,0,0,0,0,0,0,0,0,0,0,0,0,0,0,0,0,0,0,0,0,0,0,0,0,0,0,0,0,0,0,0,0,0,0,0,0,0,0,0,0,0,0,0,0,0,0,0,0,0,0,0,0,0,0,0,0,0,0,0,0,0,0,0,0,0,0,0,0,0,0,0,0,0,0,0,0,0,0,0,0,0,0,0,0,0,0,0,0,0,0,0,0,0,0,0,0,0,0,0,0,0,0,0,0,0,0,0,0,0,0,0,0,0,0,0,0,0,0,0,0,0,0,0,0,0,0,0,0,0,0,0,0,0,0,0,0,0,0,0,0,0,0,0,0,0,0,0,0,0,0,0,0,0,0,0,0,0,0,0,0,0,0,0,0,0,0,0,0,0,0,0,0,0,0,0,0,0,0,0,0,0,0,0,0,0,0,0,0,0,0,0,0,0,0,0,0,0,0,0,0,0,0,0,0,0,0,0,0,0,0,0],"id":0,"left_children":[1,3,5,7,9,11,13,15,17,19,21,23,25,27,29,31,33,35,37,39,41,43,45,47,49,51,53,55,57,59,61,63,65,67,69,71,73,75,77,79,81,83,85,87,89,91,-1,93,95,97,99,101,-1,103,105,107,109,111,113,115,117,-1,-1,119,121,123,125,127,129,131,133,135,137,139,141,143,145,147,149,151,153,155,157,159,161,163,-1,165,167,-1,169,171,173,175,177,179,181,183,185,187,189,-1,-1,191,193,195,197,199,201,-1,203,-1,205,207,209,211,213,-1,215,217,219,221,-1,223,225,227,229,231,233,235,237,239,241,243,245,247,249,251,253,255,257,259,261,263,265,-1,-1,267,-1,269,271,273,275,277,279,281,283,-1,-1,285,287,289,291,-1,-1,293,295,297,299,-1,-1,301,-1,-1,-1,303,305,307,309,311,-1,-1,-1,-1,-1,313,315,317,319,321,323,325,327,329,331,-1,-1,333,335,337,-1,339,341,-1,-1,-1,-1,-1,-1,-1,-1,-1,343,-1,-1,-1,-1,345,347,349,-1,351,353,355,357,359,361,363,365,-1,367,369,371,373,375,377,379,381,383,385,387,389,391,393,395,397,399,401,403,405,407,409,411,413,415,-1,417,419,421,423,-1,-1,-1,425,-1,427,429,431,-1,433,435,437,439,441,443,445,-1,447,-1,-1,-1,449,451,-1,453,455,-1,457,459,-1,461,463,465,-1,467,469,471,-1,473,475,477,-1,-1,479,481,483,485,-1,-1,487,489,491,-1,493,495,497,499,501,-1,-1,-1,-1,-1,-1,-1,503,505,507,509,511,513,515,517,519,-1,-1,-1,521,-1,523,525,-1,-1,-1,-1,527,529,531,533,535,537,539,-1,-1,-1,-1,541,543,545,547,549,551,-1,553,555,557,559,561,-1,563,565,567,569,571,573,575,577,579,581,583,-1,585,587,589,591,593,595,597,-1,-1,-1,-1,599,601,603,605,607,-1,-1,-1,-1,609,611,613,615,617,-1,-1,-1,619,-1,621,623,-1,-1,625,-1,627,-1,629,-1,-1,-1,631,-1,-1,-1,633,-1,635,637,639,-1,641,-1,-1,-1,643,-1,-1,645,647,649,651,653,655,657,659,-1,-1,-1,661,-1,-1,-1,663,665,667,-1,669,-1,-1,-1,671,673,-1,-1,-1,-1,675,-1,-1,677,679,-1,-1,681,683,685,687,689,691,693,695,697,699,701,703,705,707,709,711,713,715,717,719,-1,721,723,725,-1,727,-1,729,-1,-1,-1,731,-1,733,735,-1,-1,737,739,-1,-1,-1,741,-1,-1,743,745,747,749,751,753,-1,-1,-1,-1,-1,-1,-1,-1,-1,-1,-1,-1,-1,-1,-1,-1,-1,-1,-1,-1,-1,-1,-1,-1,-1,-1,-1,-1,-1,-1,-1,-1,-1,-1,-1,-1,-1,-1,-1,-1,-1,-1,-1,-1,-1,-1,-1,-1,-1,-1,-1,-1,-1,-1,-1,-1,-1,-1,-1,-1,-1,-1,-1,-1,-1,-1,-1,-1,-1,-1,-1,-1,-1,-1,-1,-1,-1,-1,-1,-1,-1,-1,-1,-1,-1,-1,-1,-1,-1,-1,-1,-1,-1,-1,-1,-1,-1,-1,-1,-1,-1,-1,-1,-1,-1,-1,-1,-1,-1,-1,-1,-1,-1,-1,-1,-1,-1,-1,-1,-1,-1,-1,-1,-1,-1,-1,-1,-1,-1,-1,-1,-1,-1,-1,-1,-1,-1,-1,-1,-1,-1,-1,-1,-1,-1,-1,-1,-1,-1,-1,-1,-1,-1,-1,-1,-1,-1,-1,-1,-1,-1,-1,-1,-1,-1,-1,-1,-1,-1,-1,-1,-1,-1,-1,-1,-1,-1,-1,-1,-1,-1,-1,-1,-1,-1,-1,-1,-1,-1,-1,-1,-1,-1,-1,-1,-1,-1,-1,-1,-1,-1,-1,-1,-1,-1,-1,-1,-1,-1,-1,-1,-1,-1,-1,-1,-1,-1,-1,-1,-1,-1,-1,-1,-1,-1,-1,-1,-1],"loss_changes":[2.1258232E4,5.8887227E3,5.994048E3,3.16062E3,8.6484863E2,2.8906895E3,2.759806E2,2.643045E3,3.9079944E2,9.3171497E2,1.9857474E2,2.9183086E3,6.787147E2,2.4987378E2,1.325769E1,7.2297656E2,1.5678165E3,2.0646344E2,7.140285E1,2.7388574E2,1.5628777E2,1.4771268E2,7.318489E0,9.8187305E2,3.8090118E2,3.996701E1,3.111186E2,9.719507E1,8.457405E0,1.2076069E1,9.101754E0,4.0211914E2,4.7387695E2,1.0685089E3,2.8895898E2,2.4777026E2,6.658718E1,3.8573036E1,1.730518E1,2.2161157E2,4.9813107E1,9.855894E1,7.1814117E0,5.4956543E1,1.8079182E1,6.1168747E0,0E0,6.1304297E2,8.6374954E1,2.555539E2,1.7279053E1,2.2765501E1,0E0,2.684159E2,1.9993912E1,4.1019775E1,7.7634754E0,1.6052685E1,4.8249664E0,5.023964E0,6.102564E0,0E0,0E0,1.5939062E2,5.766041E1,3.5758908E2,9.066016E1,3.053606E2,7.7546826E2,2.9854736E1,1.01604095E2,8.405481E1,8.463845E1,3.2796703E1,1.5126907E1,1.310556E1,1.6250713E1,1.8840193E1,1.4662987E1,1.3111987E2,2.9197079E1,1.659523E1,1.2645526E1,6.719072E1,5.8929077E1,1.1469978E1,0E0,8.117615E0,3.816269E1,0E0,1.4722481E0,5.0884857E0,1.3783128E1,4.0515625E2,4.015211E2,3.8017303E1,8.323233E0,1.2661018E1,2.1188123E2,3.9010468E0,8.066133E0,0E0,0E0,1.8754675E2,1.9243797E1,7.2186527E0,3.526825E0,5.1711426E0,3.0148438E1,0E0,2.0843697E-1,0E0,4.152381E0,6.083679E-1,7.1336846E0,3.4956589E0,2.9679885E0,0E0,1.4358976E0,2.0514258E2,8.1796875E0,4.902687E1,0E0,6.2970398E1,4.3692316E2,3.7077637E1,1.1734708E1,1.8490225E2,5.3800476E1,6.9460144E2,1.16628784E2,2.3473914E2,4.4508057E0,9.8107994E1,4.0951996E0,3.421814E1,1.4239449E1,2.3238445E1,4.6942966E1,1.0232004E1,9.325642E0,8.661087E0,1.48707695E1,5.932831E0,1.0092861E1,0E0,0E0,1.1804829E1,0E0,1.0770826E1,9.649576E0,9.343213E1,2.012781E1,8.790726E0,1.1841269E1,9.769684E0,8.055555E0,0E0,0E0,5.4935944E1,2.6166967E1,2.9752693E0,2.5238754E1,0E0,0E0,5.3325195E0,5.922201E0,1.2024948E1,3.10584E1,0E0,0E0,3.6028988E0,0E0,0E0,0E0,1.528418E2,2.154303E2,1.3064575E0,3.106184E2,6.185547E0,0E0,0E0,0E0,0E0,0E0,1.0346979E2,1.0461246E2,2.1914673E-1,5.285714E0,9.3073606E-1,3.6028988E0,7.6127014E1,7.723309E1,1.3493731E1,4.1625977E0,0E0,0E0,2.06604E-2,2.6666667E0,3.5316162E0,0E0,2.4615753E1,1.1082792E1,0E0,0E0,0E0,0E0,0E0,0E0,0E0,0E0,0E0,3.866667E0,0E0,0E0,0E0,0E0,3.3084473E1,2.3936084E2,4.4785156E0,0E0,3.233246E1,1.0920782E1,1.0164795E1,5.26221E1,2.0761615E2,3.2869568E0,4.85083E0,4.413495E1,0E0,3.021595E0,3.204757E2,8.243713E0,2.285254E1,2.1260355E1,2.698368E2,3.4772057E1,2.6675995E1,4.499005E1,2.6340134E2,2.376709E0,8.967285E-1,5.820966E0,1.8876785E1,7.186934E1,8.15979E-1,2.16E0,2.6240059E1,2.5338257E1,2.8451176E0,9.226667E0,2.463768E0,1.8011074E1,1.9430294E0,2.4415771E1,0E0,6.2134647E0,6.836364E0,2.3613052E0,4.988823E0,0E0,0E0,0E0,4.9823074E0,0E0,6.7571983E0,1.5034228E1,9.657143E0,0E0,8.242551E0,2.955665E0,1.1912193E0,8.875E0,4.397412E1,3.7187355E1,1.5128047E1,0E0,2.0189476E0,0E0,0E0,0E0,7.0028005E0,6.0457306E0,0E0,2.1307693E0,2.697467E1,0E0,1.5332284E1,5.358719E0,0E0,1.904762E0,1.8890644E1,3.2426367E0,0E0,2.0111694E0,9.577522E-1,4.767507E0,0E0,1.9206238E0,1.9188541E1,2.6142586E1,0E0,0E0,6.1347656E1,5.167906E1,1.7435158E2,8.735913E1,0E0,0E0,2.174072E2,2.7842102E1,2.0373535E0,0E0,3.9973145E1,3.256895E0,6.911028E1,2.6037811E1,3.2363625E0,0E0,0E0,0E0,0E0,0E0,0E0,0E0,2.3976624E1,3.6000004E0,3.0264282E1,5.985067E1,6.628512E0,4.8685713E0,6.44569E0,4.1340027E0,2.3717976E0,0E0,0E0,0E0,2.024414E0,0E0,1.8098755E1,7.843689E0,0E0,0E0,0E0,0E0,2.0658691E1,2.1694159E1,1.7874402E2,8.063232E0,2.0761719E0,2.1094833E1,4.92894E0,0E0,0E0,0E0,0E0,7.869446E0,3.85502E1,3.0730043E1,5.387056E1,1.2154796E2,7.12677E-1,0E0,1.1442871E0,8.9253845E0,5.981079E0,3.794388E1,2.8899918E0,0E0,1.23499054E2,1.7851456E1,6.2010956E0,5.3090043E0,2.1446533E0,1.8185951E1,2.651094E1,8.4108543E-1,1.4736243E2,1.091954E1,3.2765232E1,0E0,1.5704407E1,7.7366304E0,4.0888206E1,1.9647675E0,6.9903725E1,6.00531E0,8.5058594E-1,0E0,0E0,0E0,0E0,3.6738548E0,1.0871246E1,2.1404484E1,5.5182762E1,5.662735E0,0E0,0E0,0E0,0E0,2.2704895E1,4.6619797E-1,1.5422852E1,1.1597311E1,1.3982697E0,0E0,0E0,0E0,1.2067108E0,0E0,2.2402199E1,3.6571426E0,0E0,0E0,1.6049896E1,0E0,1.886447E0,0E0,1.3636364E0,0E0,0E0,0E0,6.0396576E-1,0E0,0E0,0E0,4.47641E0,0E0,4.394807E0,7.766083E0,2.4761906E0,0E0,7.873297E-1,0E0,0E0,0E0,3.9769235E0,0E0,0E0,6.66667E-1,1.862135E1,2.051831E1,6.0786514E0,3.3428078E1,3.9004612E0,1.1191863E1,1.6788864E0,0E0,0E0,0E0,6.948166E-1,0E0,0E0,0E0,1.7882889E1,1.3496033E1,9.219257E0,0E0,1.4922409E0,0E0,0E0,0E0,1.6152992E1,2.805797E0,0E0,0E0,0E0,0E0,3.7571964E0,0E0,0E0,2.1904762E0,3.383026E-1,0E0,0E0,1.157552E1,4.3789215E0,2.025953E1,4.917383E1,4.056486E1,4.178551E1,5.370407E0,1.01109055E2,2.429007E1,5.8234497E1,2.4031145E1,1.13012054E2,4.6177444E0,1.174057E1,1.0633894E1,9.7680664E-1,1.4869227E0,1.9471985E1,1.0658647E1,1.8089638E0,0E0,2.6025257E1,4.129272E1,2.1474472E1,0E0,6.839827E0,0E0,1.7330566E1,0E0,0E0,0E0,9.480362E0,0E0,3.968748E1,2.0130589E1,0E0,0E0,2.811429E0,1.0190769E1,0E0,0E0,0E0,2.731186E0,0E0,0E0,5.9161787E0,1.6153564E0,1.055896E1,2.4639397E1,6.4298706E0,8.093788E0,0E0,0E0,0E0,0E0,0E0,0E0,0E0,0E0,0E0,0E0,0E0,0E0,0E0,0E0,0E0,0E0,0E0,0E0,0E0,0E0,0E0,0E0,0E0,0E0,0E0,0E0,0E0,0E0,0E0,0E0,0E0,0E0,0E0,0E0,0E0,0E0,0E0,0E0,0E0,0E0,0E0,0E0,0E0,0E0,0E0,0E0,0E0,0E0,0E0,0E0,0E0,0E0,0E0,0E0,0E0,0E0,0E0,0E0,0E0,0E0,0E0,0E0,0E0,0E0,0E0,0E0,0E0,0E0,0E0,0E0,0E0,0E0,0E0,0E0,0E0,0E0,0E0,0E0,0E0,0E0,0E0,0E0,0E0,0E0,0E0,0E0,0E0,0E0,0E0,0E0,0E0,0E0,0E0,0E0,0E0,0E0,0E0,0E0,0E0,0E0,0E0,0E0,0E0,0E0,0E0,0E0,0E0,0E0,0E0,0E0,0E0,0E0,0E0,0E0,0E0,0E0,0E0,0E0,0E0,0E0,0E0,0E0,0E0,0E0,0E0,0E0,0E0,0E0,0E0,0E0,0E0,0E0,0E0,0E0,0E0,0E0,0E0,0E0,0E0,0E0,0E0,0E0,0E0,0E0,0E0,0E0,0E0,0E0,0E0,0E0,0E0,0E0,0E0,0E0,0E0,0E0,0E0,0E0,0E0,0E0,0E0,0E0,0E0,0E0,0E0,0E0,0E0,0E0,0E0,0E0,0E0,0E0,0E0,0E0,0E0,0E0,0E0,0E0,0E0,0E0,0E0,0E0,0E0,0E0,0E0,0E0,0E0,0E0,0E0,0E0,0E0,0E0,0E0,0E0,0E0,0E0,0E0,0E0,0E0,0E0,0E0,0E0,0E0,0E0,0E0,0E0,0E0,0E0,0E0,0E0,0E0,0E0,0E0,0E0,0E0,0E0,0E0,0E0,0E0,0E0,0E0,0E0,0E0,0E0,0E0,0E0,0E0,0E0],"parents":[2147483647,0,0,1,1,2,2,3,3,4,4,5,5,6,6,7,7,8,8,9,9,10,10,11,11,12,12,13,13,14,14,15,15,16,16,17,17,18,18,19,19,20,20,21,21,22,22,23,23,24,24,25,25,26,26,27,27,28,28,29,29,30,30,31,31,32,32,33,33,34,34,35,35,36,36,37,37,38,38,39,39,40,40,41,41,42,42,43,43,44,44,45,45,47,47,48,48,49,49,50,50,51,51,53,53,54,54,55,55,56,56,57,57,58,58,59,59,60,60,63,63,64,64,65,65,66,66,67,67,68,68,69,69,70,70,71,71,72,72,73,73,74,74,75,75,76,76,77,77,78,78,79,79,80,80,81,81,82,82,83,83,84,84,85,85,87,87,88,88,90,90,91,91,92,92,93,93,94,94,95,95,96,96,97,97,98,98,99,99,100,100,103,103,104,104,105,105,106,106,107,107,108,108,110,110,112,112,113,113,114,114,115,115,116,116,118,118,119,119,120,120,121,121,123,123,124,124,125,125,126,126,127,127,128,128,129,129,130,130,131,131,132,132,133,133,134,134,135,135,136,136,137,137,138,138,139,139,140,140,141,141,142,142,143,143,144,144,147,147,149,149,150,150,151,151,152,152,153,153,154,154,155,155,156,156,159,159,160,160,161,161,162,162,165,165,166,166,167,167,168,168,171,171,175,175,176,176,177,177,178,178,179,179,185,185,186,186,187,187,188,188,189,189,190,190,191,191,192,192,193,193,194,194,197,197,198,198,199,199,201,201,202,202,212,212,217,217,218,218,219,219,221,221,222,222,223,223,224,224,225,225,226,226,227,227,228,228,230,230,231,231,232,232,233,233,234,234,235,235,236,236,237,237,238,238,239,239,240,240,241,241,242,242,243,243,244,244,245,245,246,246,247,247,248,248,249,249,250,250,251,251,252,252,253,253,254,254,256,256,257,257,258,258,259,259,263,263,265,265,266,266,267,267,269,269,270,270,271,271,272,272,273,273,274,274,275,275,277,277,281,281,282,282,284,284,285,285,287,287,288,288,290,290,291,291,292,292,294,294,295,295,296,296,298,298,299,299,300,300,303,303,304,304,305,305,306,306,309,309,310,310,311,311,313,313,314,314,315,315,316,316,317,317,325,325,326,326,327,327,328,328,329,329,330,330,331,331,332,332,333,333,337,337,339,339,340,340,345,345,346,346,347,347,348,348,349,349,350,350,351,351,356,356,357,357,358,358,359,359,360,360,361,361,363,363,364,364,365,365,366,366,367,367,369,369,370,370,371,371,372,372,373,373,374,374,375,375,376,376,377,377,378,378,379,379,381,381,382,382,383,383,384,384,385,385,386,386,387,387,392,392,393,393,394,394,395,395,396,396,401,401,402,402,403,403,404,404,405,405,409,409,411,411,412,412,415,415,417,417,419,419,423,423,427,427,429,429,430,430,431,431,433,433,437,437,440,440,441,441,442,442,443,443,444,444,445,445,446,446,447,447,451,451,455,455,456,456,457,457,459,459,463,463,464,464,469,469,472,472,473,473,476,476,477,477,478,478,479,479,480,480,481,481,482,482,483,483,484,484,485,485,486,486,487,487,488,488,489,489,490,490,491,491,492,492,493,493,494,494,495,495,497,497,498,498,499,499,501,501,503,503,507,507,509,509,510,510,513,513,514,514,518,518,521,521,522,522,523,523,524,524,525,525,526,526],"right_children":[2,4,6,8,10,12,14,16,18,20,22,24,26,28,30,32,34,36,38,40,42,44,46,48,50,52,54,56,58,60,62,64,66,68,70,72,74,76,78,80,82,84,86,88,90,92,-1,94,96,98,100,102,-1,104,106,108,110,112,114,116,118,-1,-1,120,122,124,126,128,130,132,134,136,138,140,142,144,146,148,150,152,154,156,158,160,162,164,-1,166,168,-1,170,172,174,176,178,180,182,184,186,188,190,-1,-1,192,194,196,198,200,202,-1,204,-1,206,208,210,212,214,-1,216,218,220,222,-1,224,226,228,230,232,234,236,238,240,242,244,246,248,250,252,254,256,258,260,262,264,266,-1,-1,268,-1,270,272,274,276,278,280,282,284,-1,-1,286,288,290,292,-1,-1,294,296,298,300,-1,-1,302,-1,-1,-1,304,306,308,310,312,-1,-1,-1,-1,-1,314,316,318,320,322,324,326,328,330,332,-1,-1,334,336,338,-1,340,342,-1,-1,-1,-1,-1,-1,-1,-1,-1,344,-1,-1,-1,-1,346,348,350,-1,352,354,356,358,360,362,364,366,-1,368,370,372,374,376,378,380,382,384,386,388,390,392,394,396,398,400,402,404,406,408,410,412,414,416,-1,418,420,422,424,-1,-1,-1,426,-1,428,430,432,-1,434,436,438,440,442,444,446,-1,448,-1,-1,-1,450,452,-1,454,456,-1,458,460,-1,462,464,466,-1,468,470,472,-1,474,476,478,-1,-1,480,482,484,486,-1,-1,488,490,492,-1,494,496,498,500,502,-1,-1,-1,-1,-1,-1,-1,504,506,508,510,512,514,516,518,520,-1,-1,-1,522,-1,524,526,-1,-1,-1,-1,528,530,532,534,536,538,540,-1,-1,-1,-1,542,544,546,548,550,552,-1,554,556,558,560,562,-1,564,566,568,570,572,574,576,578,580,582,584,-1,586,588,590,592,594,596,598,-1,-1,-1,-1,600,602,604,606,608,-1,-1,-1,-1,610,612,614,616,618,-1,-1,-1,620,-1,622,624,-1,-1,626,-1,628,-1,630,-1,-1,-1,632,-1,-1,-1,634,-1,636,638,640,-1,642,-1,-1,-1,644,-1,-1,646,648,650,652,654,656,658,660,-1,-1,-1,662,-1,-1,-1,664,666,668,-1,670,-1,-1,-1,672,674,-1,-1,-1,-1,676,-1,-1,678,680,-1,-1,682,684,686,688,690,692,694,696,698,700,702,704,706,708,710,712,714,716,718,720,-1,722,724,726,-1,728,-1,730,-1,-1,-1,732,-1,734,736,-1,-1,738,740,-1,-1,-1,742,-1,-1,744,746,748,750,752,754,-1,-1,-1,-1,-1,-1,-1,-1,-1,-1,-1,-1,-1,-1,-1,-1,-1,-1,-1,-1,-1,-1,-1,-1,-1,-1,-1,-1,-1,-1,-1,-1,-1,-1,-1,-1,-1,-1,-1,-1,-1,-1,-1,-1,-1,-1,-1,-1,-1,-1,-1,-1,-1,-1,-1,-1,-1,-1,-1,-1,-1,-1,-1,-1,-1,-1,-1,-1,-1,-1,-1,-1,-1,-1,-1,-1,-1,-1,-1,-1,-1,-1,-1,-1,-1,-1,-1,-1,-1,-1,-1,-1,-1,-1,-1,-1,-1,-1,-1,-1,-1,-1,-1,-1,-1,-1,-1,-1,-1,-1,-1,-1,-1,-1,-1,-1,-1,-1,-1,-1,-1,-1,-1,-1,-1,-1,-1,-1,-1,-1,-1,-1,-1,-1,-1,-1,-1,-1,-1,-1,-1,-1,-1,-1,-1,-1,-1,-1,-1,-1,-1,-1,-1,-1,-1,-1,-1,-1,-1,-1,-1,-1,-1,-1,-1,-1,-1,-1,-1,-1,-1,-1,-1,-1,-1,-1,-1,-1,-1,-1,-1,-1,-1,-1,-1,-1,-1,-1,-1,-1,-1,-1,-1,-1,-1,-1,-1,-1,-1,-1,-1,-1,-1,-1,-1,-1,-1,-1,-1,-1,-1,-1,-1,-1,-1,-1,-1,-1,-1,-1,-1,-1,-1,-1,-1,-1,-1,-1],"split_conditions":[2.0002628E2,1.8255E3,5E-1,5.789925E3,5E-1,5E-1,5.827437E3,8.5E-1,5E-1,5E-1,6.042836E3,5E-1,4.8995502E2,2.226E3,5E-1,5E-1,5E-1,5E-1,5E-1,5E-1,3.4445E3,5.6751494E3,5E-1,5E-1,1.923E3,2.1054785E2,1.961E3,1.501137E3,4.3255063E3,5E-1,6.271589E3,9.548998E3,5E-1,4.65E1,5E-1,5E-1,7.026301E3,1.0853438E4,5E-1,5E-1,3.0365E3,8.5E-1,3.639E3,5.65E1,4E1,6.3526904E3,-5.0000004E-2,5E-1,1.968E3,4.888456E2,5E-1,2.0972668E2,2.9726028E-1,5.7064863E3,4.45E1,5E-1,6.35E1,4.1287676E3,4.754087E3,5E-1,6.0496943E3,-1.7368421E-1,1.4E-1,5E-1,1.0249309E4,4.75E1,5.760164E3,5E-1,5E-1,5E-1,5E-1,5E-1,7.5E-1,3.75E1,1.0423232E4,3.5E1,6.678773E3,9.922142E3,3.5E1,5E-1,2.9855E3,5.4373066E3,3.5E0,5.5831465E3,3.1E1,5E-1,2.8846154E-1,2.9015E3,5E-1,-1.2857144E-1,3.5000002E-1,6.339265E3,2.011E3,5E-1,4.9989948E2,5.9646484E3,4.888905E3,2.1057104E2,8.5E-1,1.75E1,1.25E3,2.2941178E-1,-2.2500001E-1,8.5E-1,5.9234395E3,5E-1,5E-1,9.275533E3,5.561333E3,-4.2857148E-2,1.175E2,2.4285716E-1,5E-1,4.4040723E3,8.5E-1,5E-1,1.064E3,-1.6153848E-1,8.272051E3,4.85E1,3.605E2,4.5E1,2.7894738E-1,5E-1,5E-1,5E-1,5.5E1,5E-1,5.4729805E3,5E-1,5E-1,5E-1,1.8599712E1,4.05E1,5.352675E3,1.45E1,5.6190215E3,4.95E1,1.8E1,5.431962E3,1.0175E3,7.0572285E3,1.2485E3,4.246705E3,7.5E-1,2.5555557E-1,-1.6153848E-1,6.946759E3,1.857143E-1,7.1436187E3,5E-1,5E-1,5.7042983E3,5.492918E3,6.155127E3,3.1513838E3,2.162E3,2.4000001E-1,-1.1538462E-1,5.696681E3,1.45E1,2.35E1,5E-1,2.2173914E-1,-1.2857144E-1,2.659082E3,4.15E1,3.5843164E3,4.4163022E3,1.0000001E-1,2.7600002E-1,7.35E1,2.876289E-1,-1.2352942E-1,2.2000001E-1,5E-1,7.5E-1,5E-1,5.0893145E3,5.553659E3,2.0000002E-1,-5.0000004E-2,2.6666668E-1,-4.2857148E-2,2.9124087E-1,5.617632E3,5E-1,4.9049756E3,8.5E-1,5.5E0,5.1307207E3,5.641958E3,4.95E1,5E-1,3.85E1,-1.5882355E-1,1.10526316E-1,5E-1,5.339716E3,5.6323906E3,-4.2857148E-2,5E-1,1.372E3,1.0000001E-1,2.6129034E-1,-1.8E-1,4.2857148E-2,1.0000001E-1,2.7818182E-1,-4.7368422E-2,2.0400001E-1,2.7391306E-1,2E0,-4.2857148E-2,1.6153848E-1,-0E0,1.6153848E-1,5.8342886E3,5E-1,8.0252793E3,-2.0000001E-2,1.4805E3,7.85E1,7.9936694E2,7.5E-1,5E-1,3.05E2,4.5730947E3,4.95E1,-1.2352942E-1,1.85E1,5E-1,4.5E1,5E-1,5E-1,5E-1,5E-1,7.463921E3,5E-1,5E-1,2.585E2,5.652107E3,2.802706E3,4.063082E3,5E-1,2.17E2,1.4E2,8.5E-1,5E-1,1.445E2,3E-1,9.897814E3,9.119758E3,4.2752576E0,5E-1,-2.2258066E-1,6.4643164E3,4.5E1,5E-1,1.555E2,5.0000004E-2,-2.0769233E-1,2.2500001E-1,7.75E1,-2.7454546E-1,2.39E2,6.174223E3,2.5E0,1.5E-1,8.85E1,5.7113794E3,5.9630938E3,4.9E1,1.65E1,5E-1,7.15E1,1.9565219E-1,7.9151724E3,1.5789475E-2,-1.5E-1,2.1428573E-1,2.903188E3,8.0257715E3,-1.5E-1,2.5685E3,4.0769043E3,2.2000001E-1,6.5E0,6.5896626E3,-2.7209303E-1,1.4E1,5E-1,4.9605894E3,-2.3076925E-2,1.6083208E3,8.5E-1,5E-1,6.0000002E-2,3.219E3,4.0744155E3,4.438718E3,-5.0000004E-2,1.8E-1,5E-1,1.468E3,5.0281797E3,5E-1,1.3333334E-1,2.9483503E-1,1.869E3,5E-1,5.249949E3,-0E0,1.75E3,2.55E1,4.95E1,5.7971875E3,3.5E0,2.928144E-1,-4.2857148E-2,2.1000001E-1,2.1428573E-1,5.0000004E-2,-1.8E-1,5.0000004E-2,9.6553545E3,1.05E1,9.263549E3,5E-1,7.6759995E3,2.5E0,8.5E-1,2.5E1,5.5E0,2.79021E-1,-0E0,2.0000002E-1,2.2018772E3,-5.0000004E-2,6.5906436E3,7.358419E3,-1.2857144E-1,2.1818183E-1,-5.0000004E-2,2.0000002E-1,4.5E1,4.9283633E3,5E-1,4.5E1,5.688411E3,4.5460654E3,5.3042915E3,2.1000001E-1,-6.923077E-2,2.64E-1,2.0000001E-2,1.4615E3,9.433283E3,5E-1,5E-1,5E-1,5.6367256E3,-5.0000004E-2,9.179978E2,3.6197524E3,1.895E2,5E-1,5E-1,3.3333335E-2,5E-1,5E-1,3.595E2,5E-1,5.3866367E3,1.65E1,5E-1,4.5E0,5E-1,4.5E1,5E-1,-2.830189E-1,2.6315552E3,1.204E3,5E-1,1.415E3,5E-1,5.515E2,2.855E2,-8.5714296E-2,-2.8279305E-1,-1.3333334E-1,5.0000004E-2,7.55E1,8.476578E2,5E-1,5E-1,7.40553E3,-2.8141594E-1,-1.0000001E-1,-1.8E-1,-0E0,6.330788E3,1.95E1,5E-1,4.75E1,5.4138174E0,-0E0,2.0400001E-1,-1.0000001E-1,6.5E0,-5.0000004E-2,6.517661E3,5.533875E3,-5.0000004E-2,-2.52E-1,5E-1,-1.6666669E-1,4.0150213E0,2.0000002E-1,6.302298E3,2.0000002E-1,2.5454548E-1,7.5E-2,6.875E2,-2.3076925E-2,-1.875E-1,6.923077E-2,4.323115E3,5.0000004E-2,7.1779277E3,5.372445E3,8E1,-2.6000002E-1,6.417307E3,-1.0000001E-1,-2.1428573E-1,-0E0,6.5E0,2.632653E-1,-1.5E-1,4.5E-1,5E-1,5E-1,5E-1,5.5E0,4.5E1,2.411E3,2.6095E3,-5.0000004E-2,-1.5882355E-1,1.2857144E-1,1.85E1,-0E0,2.0769233E-1,2.0000001E-2,4.3969863E3,3.5E0,5E-1,-2.0769233E-1,7.504251E3,5.0000004E-2,-0E0,-1.7142859E-1,5E-1,5.0449014E3,-2.2173914E-1,-0E0,-8.5714296E-2,-2.7076566E-1,6.1497324E3,-8.8235304E-2,-1.7142859E-1,4.217793E3,2.134499E3,-6.923077E-2,1.4210527E-1,6.992465E3,1.15E1,5E-1,8.5E-1,1.443E3,1.7E3,5E-1,4.869091E2,5E-1,1.357E3,6.113246E3,4.65E1,5E-1,1.7455E3,1.8355E3,2.855E2,1.3E1,2.955E2,3.7940562E3,1.05E1,-0E0,4.5E0,5E-1,2.5736003E3,2.2000001E-1,4.083827E3,2.5E-1,1.6223617E3,2.0000002E-1,2.2500001E-1,-0E0,5.480795E3,2.2500001E-1,5E-1,1.5613828E3,5.294118E-2,-2.0000002E-1,8E1,4.3125566E3,-8.5714296E-2,1.9411767E-1,5.294118E-2,2.8363286E3,2.2682928E-1,4.2857148E-2,2.7087166E3,3.145E2,5E-1,4.6462266E3,3.23E2,8.5E-1,-2.8050792E-1,-2.105042E-1,2.3333335E-1,-1.4727274E-1,-1.0889061E-1,-2.2557929E-1,-2.936561E-1,-1.3636364E-1,-2.882341E-1,-1.909091E-1,1.6153848E-1,-2.5164837E-1,-2.4857144E-1,-0E0,-2.7507696E-1,-1.575E-1,-1.8863401E-1,2.4000001E-1,-1.0531915E-1,9.8076925E-2,-4.845361E-2,-2.2606637E-1,-1.07594945E-1,1.2523432E-1,-2.75534E-1,-1.0000001E-1,-1.7272727E-1,-2.8834954E-1,-0E0,-2.4434784E-1,-2.69441E-1,-1.3404256E-1,-1.1538462E-1,-2.3153529E-1,2.4705884E-1,4.2857148E-2,1.6363637E-1,-2.7187502E-1,-2.3684213E-1,-1.16949156E-1,-2.0000001E-2,-2.5714287E-1,-2.3684213E-1,-3.658537E-2,-2.716923E-1,-1.4516129E-1,-2.526316E-1,-1.0923078E-1,1.0000001E-1,-2.3571429E-1,-1.0000001E-1,-2.6250002E-1,2.3743366E-1,-1.6588236E-1,-2.3E-1,-1.0344828E-2,-2.4392524E-1,-5.870968E-2,-1.386207E-1,-2.618582E-1,-1.12500004E-1,1.6363637E-1,2.99389E-2,-2.2500001E-1,-2.7966103E-1,-8.5714296E-2,2.9322034E-1,-2.3333335E-1,-8.5714296E-2,-2.638191E-1,-2.8102085E-1,-1.0000001E-1,-2.6250002E-1,-5.294118E-2,1.764706E-2,-2.604061E-1,-1.4018692E-2,-2.1428573E-1,-7.058824E-2,9.216495E-2,-2.7176473E-1,-3.75E-2,-1.8947369E-1,1.457143E-1,2.7272728E-1,1.0000001E-1,2.764298E-1,-1.0000001E-1,-2.1428573E-1,1.2222222E-1,-1.0000001E-1,-2.4285716E-1,-1.2857144E-1,-2.7600002E-1,8.048781E-2,-2.0294118E-1,-0E0,2.4000001E-1,2.2921349E-1,-1.5E-1,2.3076925E-2,-1.5E-1,-1.5E-1,-0E0,-1.0000001E-1,-2.736842E-1,-0E0,-2.3406595E-1,-3.0000001E-2,-2.3571429E-1,-6.666667E-2,2.0000002E-1,-1.0000001E-1,8.5714296E-2,6.923077E-2,2.2941178E-1,2.2000001E-1,-2.3076925E-2,5.0000004E-2,2.0000002E-1,2.5932205E-1,5.3731345E-2,2.731844E-1,-1.5E-1,2.8983054E-1,2.3076925E-2,1.8888889E-1,1.2295082E-2,-2.2258066E-1,-0E0,-1.4210527E-1,1.6153848E-1,-2.7272728E-1,-1.457143E-1,-2.7818182E-1,-1.0000001E-1,-1.7142859E-1,1.5454546E-1,-3.658537E-2,-2.2756933E-1,-3.9130434E-2,1.8409091E-1,-5.0000004E-2,-2.2727273E-1,1.7777778E-1,-2.727273E-2,-2.2000001E-1,-0E0,-2.6923078E-1,-4.2857148E-2,1.2857144E-1,-4.2857148E-2,-1.0000001E-1,-2.591837E-1,-2.1176472E-1,7.5E-2,2.6756757E-1,2.3076925E-2,-2.1428573E-1,2.3741009E-2,2.6039872E-1,2.9052204E-1,3.0769233E-2,2.6190478E-1,-9.7500004E-2,2.526316E-1,2.4705884E-1,5.454546E-2,2.830986E-1,-9.884393E-2,2.2195123E-1,-1.5882355E-1,1.8841986E-1,2.7816197E-1,-1.5833335E-1,1.457143E-1,-2.3076925E-1,-2.1290323E-2,2.5500003E-1,2.3076925E-2,1.8535033E-1,2.876923E-1,-1.0540541E-1,1.875E-1,-2.772595E-1,-1.2352942E-1,-1.875E-1,-2.3076925E-2,-2.484185E-1,-6.923077E-2,-7.894737E-2,2.4000001E-1,2.4857144E-1,9E-2,6.923077E-2,-1.835821E-1,-1.4444445E-1,1.3677582E-1,-6.122449E-3,-2.3304723E-1,2.1428573E-1,-1.0000001E-1,-2.5208053E-1,6.666667E-2,-2.1724138E-1,6.923077E-2,-5.103735E-2,1.1489362E-1,-1.7203793E-1,1.3636364E-1,4.2857148E-2,2.52E-1,2.0769233E-1,-1.5E-1,5.0000004E-2,2.6129034E-1,-2.3684213E-1,5.0000004E-2,-2.8212768E-1,-1.8E-1,-2.3201971E-1,-1.2769231E-1,1.7647061E-1,-1.6363637E-1,-2.7119E-1,-0E0,-2.2173914E-1,4.2857148E-2],"split_indices":[19,7,18,9,46,48,9,0,15,48,9,46,19,7,48,49,15,46,49,41,7,10,18,41,7,19,7,19,10,46,9,8,15,3,49,48,8,8,30,18,7,0,7,3,3,10,0,39,7,19,15,19,0,9,3,49,3,10,9,15,9,0,0,15,8,3,10,39,48,48,18,41,0,3,8,4,9,8,4,47,7,9,24,9,3,26,0,7,14,0,0,9,7,15,19,9,8,19,0,2,19,0,0,0,9,14,25,8,10,0,3,0,49,10,0,25,7,0,8,3,3,4,0,14,41,14,3,46,10,46,14,46,21,3,9,3,10,3,3,8,7,9,7,8,0,0,0,9,0,8,39,15,9,9,8,8,7,0,0,10,12,3,18,0,0,9,3,10,10,0,0,3,0,0,0,47,0,16,9,10,0,0,0,0,0,10,15,10,0,12,10,10,3,14,3,0,0,14,10,10,0,15,7,0,0,0,0,0,0,0,0,0,2,0,0,0,0,10,41,8,0,7,3,8,0,14,3,10,3,0,17,48,4,49,46,47,18,8,41,47,13,10,9,8,31,3,13,0,18,3,0,8,8,21,18,0,9,4,26,13,0,0,0,3,0,3,9,12,0,13,10,9,3,3,49,3,0,8,0,0,0,8,8,0,7,10,0,2,9,0,17,41,9,0,8,0,14,0,7,10,9,0,0,31,7,10,31,0,0,7,47,9,0,19,17,3,10,24,0,0,0,0,0,0,0,8,12,8,15,8,24,0,4,24,0,0,0,9,0,8,8,0,0,0,0,4,9,48,4,9,9,9,0,0,0,0,7,8,27,39,30,10,0,8,9,13,26,26,0,41,14,7,30,9,3,48,2,31,4,30,0,8,7,18,7,50,7,3,0,0,0,0,3,8,39,14,8,0,0,0,0,9,17,33,3,21,0,0,0,12,0,8,10,0,0,41,0,21,0,9,0,0,0,7,0,0,0,10,0,8,10,3,0,9,0,0,0,12,0,0,0,49,35,50,12,4,7,7,0,0,0,12,0,0,0,8,12,30,0,8,0,0,0,15,9,0,0,0,0,8,0,0,9,8,0,0,8,12,30,0,7,19,26,19,31,7,8,3,15,7,7,13,17,13,9,12,0,12,30,9,0,9,0,19,0,0,0,9,0,14,19,0,0,3,10,0,0,0,8,0,0,8,13,14,9,13,0,0,0,0,0,0,0,0,0,0,0,0,0,0,0,0,0,0,0,0,0,0,0,0,0,0,0,0,0,0,0,0,0,0,0,0,0,0,0,0,0,0,0,0,0,0,0,0,0,0,0,0,0,0,0,0,0,0,0,0,0,0,0,0,0,0,0,0,0,0,0,0,0,0,0,0,0,0,0,0,0,0,0,0,0,0,0,0,0,0,0,0,0,0,0,0,0,0,0,0,0,0,0,0,0,0,0,0,0,0,0,0,0,0,0,0,0,0,0,0,0,0,0,0,0,0,0,0,0,0,0,0,0,0,0,0,0,0,0,0,0,0,0,0,0,0,0,0,0,0,0,0,0,0,0,0,0,0,0,0,0,0,0,0,0,0,0,0,0,0,0,0,0,0,0,0,0,0,0,0,0,0,0,0,0,0,0,0,0,0,0,0,0,0,0,0,0,0,0,0,0,0,0,0,0,0,0,0,0,0,0,0,0,0,0,0,0,0,0,0,0,0,0,0,0,0,0,0,0],"split_type":[0,0,0,0,0,0,0,0,0,0,0,0,0,0,0,0,0,0,0,0,0,0,0,0,0,0,0,0,0,0,0,0,0,0,0,0,0,0,0,0,0,0,0,0,0,0,0,0,0,0,0,0,0,0,0,0,0,0,0,0,0,0,0,0,0,0,0,0,0,0,0,0,0,0,0,0,0,0,0,0,0,0,0,0,0,0,0,0,0,0,0,0,0,0,0,0,0,0,0,0,0,0,0,0,0,0,0,0,0,0,0,0,0,0,0,0,0,0,0,0,0,0,0,0,0,0,0,0,0,0,0,0,0,0,0,0,0,0,0,0,0,0,0,0,0,0,0,0,0,0,0,0,0,0,0,0,0,0,0,0,0,0,0,0,0,0,0,0,0,0,0,0,0,0,0,0,0,0,0,0,0,0,0,0,0,0,0,0,0,0,0,0,0,0,0,0,0,0,0,0,0,0,0,0,0,0,0,0,0,0,0,0,0,0,0,0,0,0,0,0,0,0,0,0,0,0,0,0,0,0,0,0,0,0,0,0,0,0,0,0,0,0,0,0,0,0,0,0,0,0,0,0,0,0,0,0,0,0,0,0,0,0,0,0,0,0,0,0,0,0,0,0,0,0,0,0,0,0,0,0,0,0,0,0,0,0,0,0,0,0,0,0,0,0,0,0,0,0,0,0,0,0,0,0,0,0,0,0,0,0,0,0,0,0,0,0,0,0,0,0,0,0,0,0,0,0,0,0,0,0,0,0,0,0,0,0,0,0,0,0,0,0,0,0,0,0,0,0,0,0,0,0,0,0,0,0,0,0,0,0,0,0,0,0,0,0,0,0,0,0,0,0,0,0,0,0,0,0,0,0,0,0,0,0,0,0,0,0,0,0,0,0,0,0,0,0,0,0,0,0,0,0,0,0,0,0,0,0,0,0,0,0,0,0,0,0,0,0,0,0,0,0,0,0,0,0,0,0,0,0,0,0,0,0,0,0,0,0,0,0,0,0,0,0,0,0,0,0,0,0,0,0,0,0,0,0,0,0,0,0,0,0,0,0,0,0,0,0,0,0,0,0,0,0,0,0,0,0,0,0,0,0,0,0,0,0,0,0,0,0,0,0,0,0,0,0,0,0,0,0,0,0,0,0,0,0,0,0,0,0,0,0,0,0,0,0,0,0,0,0,0,0,0,0,0,0,0,0,0,0,0,0,0,0,0,0,0,0,0,0,0,0,0,0,0,0,0,0,0,0,0,0,0,0,0,0,0,0,0,0,0,0,0,0,0,0,0,0,0,0,0,0,0,0,0,0,0,0,0,0,0,0,0,0,0,0,0,0,0,0,0,0,0,0,0,0,0,0,0,0,0,0,0,0,0,0,0,0,0,0,0,0,0,0,0,0,0,0,0,0,0,0,0,0,0,0,0,0,0,0,0,0,0,0,0,0,0,0,0,0,0,0,0,0,0,0,0,0,0,0,0,0,0,0,0,0,0,0,0,0,0,0,0,0,0,0,0,0,0,0,0,0,0,0,0,0,0,0,0,0,0,0,0,0,0,0,0,0,0,0,0,0,0,0,0,0,0,0,0,0,0,0,0,0,0,0,0,0,0,0,0,0,0,0,0,0,0,0,0,0,0,0,0,0,0,0,0,0,0,0,0,0,0,0,0,0,0,0,0,0,0,0,0,0,0,0,0,0,0,0,0,0,0,0,0],"sum_hessian":[2.478575E4,1.423475E4,1.0551E4,1.22305E4,2.00425E3,9.6615E3,8.895E2,1.139475E4,8.3575E2,1.67175E3,3.325E2,8.769E3,8.925E2,8.4575E2,4.375E1,8.04575E3,3.349E3,6.7925E2,1.565E2,1.32975E3,3.42E2,2.9275E2,3.975E1,8.08475E3,6.8425E2,1.1675E2,7.7575E2,8.1125E2,3.45E1,3.725E1,6.5E0,5.9235E3,2.12225E3,2.0975E3,1.2515E3,6.0225E2,7.7E1,9.775E1,5.875E1,1.27425E3,5.55E1,3.0975E2,3.225E1,2.6975E2,2.3E1,3.775E1,2E0,7.976E3,1.0875E2,6.0625E2,7.8E1,8.25E0,1.085E2,7.1725E2,5.85E1,8E2,1.125E1,1.075E1,2.375E1,3.075E1,6.5E0,3.75E0,2.75E0,5.85975E3,6.375E1,1.229E3,8.9325E2,7.7875E2,1.31875E3,8.7075E2,3.8075E2,4.9075E2,1.115E2,3.8E1,3.9E1,8.975E1,8E0,2.1E1,3.775E1,1.23725E3,3.7E1,4.425E1,1.125E1,2.205E2,8.925E1,7.25E0,2.5E1,1.335E2,1.3625E2,2.5E0,2.05E1,2.8E1,9.75E0,7.39025E3,5.8575E2,9.875E1,1E1,3.575E1,5.705E2,6.875E1,9.25E0,3.25E0,5E0,6.55E2,6.225E1,7E0,5.15E1,5.4825E2,2.5175E2,2.5E0,8.75E0,4.25E0,6.5E0,1.475E1,9E0,2.6E1,4.75E0,2.25E0,4.25E0,3.3025E3,2.55725E3,3.625E1,2.75E1,4.97E2,7.32E2,8.765E2,1.675E1,4.08E2,3.7075E2,1.02175E3,2.97E2,4.55E2,4.1575E2,3.18E2,6.275E1,4.7025E2,2.05E1,5.525E1,5.625E1,1.3E1,2.5E1,3.375E1,5.25E0,4.55E1,4.425E1,5.75E0,2.25E0,1.675E1,4.25E0,1.45E1,2.325E1,1.20675E3,3.05E1,2.9E1,8E0,3.625E1,8E0,9E0,2.25E0,1.8125E2,3.925E1,1.475E1,7.45E1,4.75E0,2.5E0,1.115E2,2.2E1,4.275E1,9.35E1,2.75E0,1.775E1,4.75E0,2.325E1,3.25E0,6.5E0,6.4145E3,9.7575E2,1.7675E2,4.09E2,9.525E1,3.5E0,2E0,8E0,2.5E0,3.325E1,3.44E2,2.265E2,6.225E1,6.5E0,4.5E0,4.75E0,3.86E2,2.69E2,2.125E1,4.1E1,3.25E0,3.75E0,4.65E1,5E0,5.4575E2,2.5E0,2.4475E2,7E0,2E0,6.75E0,4E0,2.5E0,2E0,1.275E1,3.75E0,5.25E0,2.2E1,4E0,2.5E0,2.25E0,2E0,2.25E0,1.64925E3,1.65325E3,2.5545E3,2.75E0,2.25E1,1.375E1,1.8325E2,3.1375E2,6.0025E2,1.3175E2,4.04E2,4.725E2,3.25E0,1.35E1,3.1975E2,8.825E1,3.3425E2,3.65E1,8.5525E2,1.665E2,1.44E2,1.53E2,1.0375E2,3.5125E2,4.035E2,1.225E1,9.9E1,2.19E2,5.75E1,5.25E0,2.825E1,4.42E2,1.25E1,8E0,2.4E1,3.125E1,7.25E0,4.9E1,6.75E0,6.25E0,6.5E0,1.85E1,3.175E1,2E0,2.25E0,3E0,5.25E0,4.025E1,2.575E1,1.85E1,1.475E1,2E0,8.25E0,6.25E0,1.625E1,7E0,1.0765E3,1.3025E2,2.575E1,4.75E0,2.525E1,3.75E0,2E0,6E0,5.75E0,3.05E1,3E0,5E0,1.7475E2,6.5E0,2.8E1,1.125E1,9.75E0,5E0,6.775E1,6.75E0,2.25E0,1.0925E2,1.45E1,7.5E0,2.75E0,4E1,3.975E1,5.375E1,2E0,2.75E0,6.338E3,7.65E1,2.4E2,7.3575E2,3.5E0,1.7325E2,2.725E2,1.365E2,9.325E1,2E0,3.3025E2,1.375E1,1.5525E2,7.125E1,2.15E1,4.075E1,2.5E0,4E0,2.5E0,2E0,2.75E0,2E0,3.77E2,9E0,8.4E1,1.85E2,8.25E0,1.3E1,5.75E0,3.525E1,1.175E1,3.475E1,3E0,2E0,5.4375E2,2E0,1.15E2,1.2975E2,2.5E0,4.5E0,2E0,2E0,1.633E3,1.625E1,1.195E3,4.5825E2,2.485E3,6.95E1,1.85E1,4E0,2.25E0,1.15E1,2.75E0,1.805E2,2.4275E2,7.1E1,1.9625E2,4.04E2,1.2975E2,2E0,3.1525E2,8.875E1,2.11E2,2.615E2,1E1,3.5E0,2.01E2,1.1875E2,7.525E1,1.3E1,2.495E2,8.475E1,2.675E1,9.75E0,8.2E2,3.525E1,1.41E2,2.55E1,1.365E2,7.5E0,1.3675E2,1.625E1,4.9E1,5.475E1,3.4875E2,2.5E0,4E2,3.5E0,2E0,1.025E1,5.15E1,4.75E1,1.9575E2,2.325E1,5.55E1,2E0,2.75E0,2.5E0,1.625E1,1.2E1,4.3375E2,8.25E0,1E1,2.5E0,5.25E0,2.75E0,2.2E1,2E0,2.525E1,6E0,2E0,5.25E0,4.55E1,3.5E0,4.25E0,2E0,4.5E0,2E0,1.55E1,3E0,2.95E1,2.25E0,3E0,2.25E0,2.375E1,2E0,1E1,8.5E0,4.5E0,1.025E1,5.5E0,2.75E0,4.25E0,2E0,5E0,1.125E1,3E0,4E0,4.625E1,1.03025E3,3.075E1,9.95E1,1.65E1,9.25E0,2.325E1,2E0,3.25E0,2.5E0,2.85E1,2E0,2.25E0,2.75E0,1.325E1,1.615E2,2.575E1,2.25E0,9.25E0,2E0,2.5E0,2.5E0,6.3E1,4.75E0,4.75E0,2E0,2.5E0,1.0675E2,1.125E1,3.25E0,2.5E0,5E0,3.775E1,2.25E0,3.75E0,3.6E1,1.05E1,4.325E1,6.2695E3,6.85E1,4.75E1,2.9E1,1.455E2,9.45E1,7.11E2,2.475E1,2.3125E2,4.125E1,1.2525E2,1.125E1,8.8E1,5.25E0,3.225E2,7.75E0,1.175E1,2E0,4.45E1,1.1075E2,6.85E1,2.75E0,4.5E0,1.7E1,3.75E2,2E0,7E0,2E0,8.1E1,3E0,1.2875E2,5.625E1,3.25E0,5E0,7.75E0,5.25E0,2.5E0,3.25E0,3.25E0,3.2E1,9.25E0,2.5E0,5.75E0,5.38E2,9.75E1,1.75E1,1.2075E2,9E0,1.515E3,1.18E2,3.5E0,1.275E1,6.4575E2,5.4925E2,4.4825E2,1E1,2.47225E3,1.275E1,2.25E0,6.725E1,1.65E1,2E0,1.615E2,1.9E1,2.3875E2,4E0,4.6E1,2.5E1,1.445E2,5.175E1,5.825E1,3.4575E2,1.2775E2,2E0,7.25E0,3.08E2,3.5E0,8.525E1,2.0025E2,1.075E1,1.42E2,1.195E2,7.5E0,2.5E0,1.86E2,1.5E1,6.075E1,5.8E1,2.75E0,7.25E1,3.75E0,9.25E0,2.4275E2,6.75E0,3.7E1,4.775E1,2.075E1,6E0,2.75E0,7E0,7.9975E2,2.025E1,2.9E1,6.25E0,2.575E1,1.1525E2,3.525E1,1.0125E2,3E0,4.5E0,1.2175E2,1.5E1,1.375E1,2.5E0,4.325E1,5.75E0,6E0,4.875E1,3.4675E2,2E0,7E0,3.25E0,3.25E0,4.825E1,2.575E1,2.175E1,7.55E1,1.2025E2,2.025E1,3E0,8.5E0,7.75E0,1E1,2E0,4.3175E2,2E0,2.5E0,5.75E0,5.75E0,4.25E0,4.25E0,1.775E1,9.25E0,1.6E1,2E0,4E0,4.35E1,2E0,2.25E0,2E0,2E0,2.5E0,2E0,2.75E1,2E0,2.175E1,4E0,6E0,3.5E0,5E0,2E0,2.5E0,2.25E0,3.25E0,2.75E0,2.25E0,2E0,2E0,1.375E1,3.25E1,1.02825E3,2E0,2.85E1,2.25E0,3.95E1,6E1,1.45E1,2E0,3.75E0,5.5E0,1.55E1,7.75E0,2.65E1,2E0,6E0,7.25E0,9.25E0,1.5225E2,4.75E0,2.1E1,2E0,7.25E0,5.3E1,1E1,2.75E0,2E0,8.75E0,2.5E0,2.5E0,2.5E0,2E0,3.575E1,3.3E1,3E0,8.25E0,2.25E0,9.5E0,3.375E1,1.855E3,4.4145E3,3.8E1,3.05E1,3.9E1,8.5E0,2.45E1,4.5E0,1.675E1,1.2875E2,9.125E1,3.25E0,4.3725E2,2.7375E2,1.7E1,7.75E0,1.16E2,1.1525E2,3.9E1,2.25E0,7.75E1,4.775E1,8.25E0,3E0,8.475E1,3.25E0,3E0,2.25E0,3.0725E2,1.525E1,3.75E0,4E0,7.75E0,4E0,1.2E1,3.25E1,1.25E1,9.825E1,1.125E1,5.725E1,2.5E0,2E0,3.715E2,3.5E0,7.875E1,2.25E0,5.925E1,6.95E1,5.175E1,4.5E0,2.5E0,5.25E0,2.25E0,3E0,2E0,3E1,3.75E0,2E0,5.2775E2,1.025E1,4.975E1,4.775E1,7.5E0,1E1,1.1875E2,2E0,4.75E0,4.25E0],"tree_param":{"num_deleted":"0","num_feature":"51","num_nodes":"755","size_leaf_vector":"0"}},{"base_weights":[-4.823141E-3,-6.636701E-1,1.0534437E0,-8.944628E-1,9.7286505E-1,1.1938946E0,-1.0439489E0,-1.0960374E0,5.8082956E-1,1.1852673E0,-3.6144206E-1,1.3505011E0,-1.5408047E-1,-1.1701562E0,1.0148534E0,-1.3701926E0,-4.4006467E-1,1.3889165E-1,1.4720834E0,1.3704946E0,4.1371375E-2,-6.6081107E-1,1.4595993E0,1.4997902E0,5.55405E-1,2.4554132E-1,-1.0549961E0,-1.3009089E0,7.92448E-1,-3.1782764E-1,1.2485746E0,-1.4096996E0,1.0177518E0,8.279952E-3,-1.229767E0,-2.8491732E-1,1.0190612E0,1.5357839E0,-3.3296067E-1,1.293571E-1,1.4639399E0,-3.606657E-1,1.155388E0,-1.2047511E0,8.174046E-2,1.5917133E0,-1.3394848E-1,1.5210408E0,3.2765247E-2,-2.1956153E-1,9.4893837E-1,-3.2182747E-1,7.5883365E-1,-1.1864152E0,1.0874623E0,-1.3494928E0,1.8223945E0,-2.401979E-1,1.1493734E0,5.927022E-1,-1.1388161E0,7.724802E-1,1.6179044E0,-1.433245E0,1.9862646E0,1.5044132E0,3.7079903E-1,-7.574031E-1,5.782241E-1,-1.2900934E0,1.8149751E0,-1.0427834E0,1.1518817E-1,1.1585637E0,-1.1116855E0,1.5767915E0,3.2878503E-1,-1.1491271E0,8.091314E-1,-5.6380117E-1,1.1829227E0,1.5053544E0,-5.2552458E-2,-5.4146695E-1,1.624639E0,1.2959604E0,-8.7727743E-1,-1.3550777E0,3.0333883E-1,5.5299467E-1,-7.770226E-1,7.8283465E-1,1.7446501E0,1.203749E0,1.6013474E0,-3.4627563E-1,1.3964486E0,-9.5034003E-1,3.072488E-1,6.857044E-1,1.6448636E0,-5.073556E-1,1.7358829E0,3.7300125E-1,1.1068431E0,-1.3474574E0,-1.2834632E-1,4.800156E-1,1.5434171E0,-1.5541687E0,-9.256124E-1,-9.430508E-1,1.3381814E0,1.5181056E0,4.3422443E-1,-8.2858145E-2,1.3932754E0,-1.4500225E0,1.4395543E0,1.577995E0,-6.4716375E-1,-3.7536705E-1,1.3286232E0,-1.1425338E0,2.5702536E-2,9.2946684E-1,-8.526714E-1,-1.5027745E0,-8.106429E-1,-1.1470572E0,7.8055304E-1,4.1738865E-1,-1.0060298E0,1.3193225E0,-1.5657431E-1,4.650955E-1,-1.5154259E0,1.197732E0,1.6546382E0,-5.1990753E-1,1.1687562E0,-1.4031775E0,-1.6657646E-1,-2.3674384E-1,1.3517417E0,-1.0230285E0,5.119541E-1,3.6515564E-1,1.3852017E0,1.5285695E0,1.6874138E-1,-5.692664E-1,1.7184775E0,-7.5635767E-1,9.409889E-1,1.738982E0,7.005968E-1,5.5882227E-2,1.4400808E0,-1.4363966E0,5.5824864E-1,-1.3230717E-1,1.179882E0,1.1746262E0,-1.0383905E0,1.6163579E-1,-1.4348443E0,-2.827495E-1,1.4090044E0,1.256358E0,-3.626652E-1,1.622946E0,1.1403779E0,-5.929807E-1,1.3132074E0,1.5445321E0,1.02563135E-1,-1.0757191E0,1.0571778E0,4.250393E-2,1.3541262E0,4.699438E-2,1.0469081E0,1.6650009E0,2.640439E-1,-7.704131E-1,9.522091E-1,5.673988E-1,1.95886E0,-3.69278E-1,6.8241316E-1,-2.232399E-1,1.2223828E0,-1.4679998E0,-7.1358097E-1,1.060945E0,-4.9621174E-1,1.4662374E0,-3.7108815E-1,-1.5726311E0,5.6202155E-1,-1.4695355E0,-5.5635893E-1,-1.4669152E-1,-1.4417408E0,1.6499827E0,5.2428734E-1,-2.792697E-1,1.2762223E0,-6.1706984E-1,7.655248E-1,-1.575301E0,-1.1073663E0,3.0907646E-1,1.7399216E0,8.2799923E-1,1.7181838E0,-1.0908446E0,6.3989705E-1,1.390639E-1,1.5525092E0,-6.8872035E-1,-1.4866313E0,6.463156E-1,-6.567916E-1,1.08014E0,-1.337538E0,-1.2740786E0,-4.4501472E-1,-1.5154722E0,1.3917475E0,-1.0262488E0,8.6075497E-1,-2.0218049E-1,-1.3841816E0,1.2684119E0,-1.249338E0,1.0334921E0,-4.2182815E-1,-1.1138179E0,1.4276413E0,-1.9786905E-1,1.3933303E0,-8.688594E-1,5.740882E-1,-1.6509455E0,-4.92123E-1,1.3404928E0,-2.5973672E-1,1.693988E0,1.1156937E0,-1.3099127E0,1.3501185E-1,3.4727973E-1,1.3745854E0,-6.52224E-1,-1.5553004E0,-1.2137026E0,9.8917097E-1,1.2460055E0,-5.692572E-1,-2.9785532E-1,1.3132199E0,8.209178E-1,1.5656209E0,1.5847971E0,1.0167702E0,-6.5373015E-1,9.5998365E-1,-1.0472008E0,1.1123896E0,-9.413654E-1,8.869621E-1,3.6189336E-1,1.6772014E0,-7.586487E-1,1.2295666E0,1.5456941E0,4.3472445E-1,-1.6364229E0,-1.0365676E0,1.096716E0,-1.5275913E-1,-7.066113E-1,1.0170175E0,1.3094441E0,-9.6447915E-1,-1.3021977E0,5.540853E-1,-3.710347E-1,1.2978235E0,-1.65741E0,-5.3702945E-1,7.557701E-1,1.410908E0,-8.400039E-1,1.0796108E0,9.6707374E-1,1.6321602E0,5.7058424E-1,1.3892571E0,-8.1263727E-1,9.645729E-1,1.557602E0,3.05687E-1,7.353056E-1,1.7112792E0,-1.1442858E0,1.672323E0,1.4874976E0,-6.743645E-2,-5.477899E-1,5.5515313E-1,1.4711663E0,-7.200997E-2,-3.8551214E-1,1.2566663E0,1.1614442E0,-2.4833998E-2,8.7104046E-1,1.6826274E0,-9.356507E-1,9.457201E-1,1.1412271E0,-5.557507E-1,-1.4266752E-1,1.0994784E0,1.0640128E0,-8.9237875E-1,7.879751E-1,-1.0452454E0,9.503307E-1,-1.0538087E0,1.3304083E0,4.0610904E-1,-1.4904363E0,3.194481E-1,-1.1458545E0,-1.11150846E-1,4.073269E-3,1.6570369E0,1.166591E0,-8.731492E-1,-1.0609607E0,4.3302876E-1,-1.5865817E0,-5.559725E-1,-1.5632846E0,-4.1570184E-1,-9.456442E-1,2.4410443E-1,1.7644459E0,7.711939E-1,7.123105E-1,-1.1905315E0,-1.6106939E0,-1.2126967E0,-7.798074E-1,-1.5439707E0,-8.889191E-1,9.6482897E-1,-4.461425E-1,1.11682E0,9.554951E-1,1.7575222E0,-1.3758769E0,6.728603E-1,-1.0255278E0,1.0643369E0,1.6416618E0,5.3318614E-1,2.241271E-1,-1.5274411E0,-1.5076768E0,7.520921E-1,1.2555071E0,-8.767933E-1,-1.3602886E0,-3.4098184E-1,1.252671E0,-9.849031E-2,8.536094E-2,-1.4592736E0,-1.3340607E0,8.300502E-1,-6.0408247E-1,8.9323384E-1,-1.6638112E0,-1.3119352E0,-7.606228E-1,-1.6122547E0,1.1858757E0,-8.0294204E-1,1.0977101E-1,-1.3489162E0,-1.4238372E0,1.332653E0,4.1651958E-1,1.5689547E0,1.8224764E-1,1.375284E0,-6.9686586E-1,1.5477858E0,-1.1806747E0,1.0295323E0,9.870609E-1,-9.273124E-1,1.5977451E0,1.0630648E0,-1.1167129E0,6.762215E-1,-1.017701E-2,1.1156245E0,-9.543404E-2,1.4311872E0,5.4434234E-1,-1.3459316E0,1.7007091E0,3.8940448E-1,1.2573168E0,2.7518627E-1,-6.041402E-1,1.005021E0,7.6434433E-1,-1.3541939E0,2.690932E-1,1.4859813E0,5.152838E-1,-1.1303979E0,-9.6284485E-1,5.011061E-1,5.3449273E-2,1.4693089E0,1.6749778E0,5.596963E-1,1.594863E0,-2.5143063E-1,7.525503E-1,1.6443427E0,7.365221E-1,-1.2160727E0,6.559111E-2,1.2187428E0,8.591605E-1,-1.4458547E0,-1.0113386E0,1.1137694E0,-7.598395E-1,1.3951814E0,-5.786152E-1,1.4851667E0,8.058016E-1,1.6261045E0,-5.4180926E-1,1.1171762E0,-1.6703634E0,-3.8700205E-1,-1.4593209E0,3.5366437E-1,-1.2840841E0,1.0020279E-1,1.455099E0,-3.5875368E-1,-1.4759494E0,-2.7038765E-1,-1.4656961E0,3.343693E-1,1.9288474E-1,-1.1015866E0,1.075211E-1,1.0662336E0,1.4620814E0,-2.649897E-2,-1.2722113E0,7.742509E-1,3.5799637E-1,1.5342385E0,4.2446427E-2,1.1961226E0,1.5120795E0,1.6761026E0,1.4375392E-1,1.5453595E0,1.2032115E0,1.6545165E0,-1.0167898E0,9.504372E-3,1.4871851E0,5.9063565E-2,-1.2926984E0,-9.495754E-2,-8.64798E-1,6.977763E-1,-1.7890927E-1,9.231337E-1,2.0663266E-1,1.5309991E0,-6.4663845E-1,9.396831E-1,1.3305767E0,-2.8483608E-1,3.9320153E-1,1.3075286E0,-3.3751065E-1,1.4285254E0,-2.3300312E-1,1.4431779E0,1.4611294E0,1.7480385E0,-1.3285576E0,-4.7331238E-1,-1.6737512E-1,1.1537396E0,3.455698E-1,1.386296E0,-8.0502784E-1,-1.3370235E-1,1.468148E0,-3.5255513E-1,2.6340717E-1,-1.1959512E0,9.1860896E-1,-7.097589E-1,-1.2939545E0,-3.567115E-1,2.8187123E-1,1.484337E0,-2.935405E-1,-1.4158441E0,1.703514E0,1.1602223E0,6.609768E-2,1.1255699E0,-1.5495533E0,-9.358697E-1,3.427751E-1,-1.347207E0,-8.74972E-1,1.4954367E0,-4.3865755E-1,-1.325537E0,-9.20563E-1,-1.6052771E0,-1.266764E0,2.5478208E-1,-1.662181E0,-8.7266684E-1,7.8897524E-1,-1.3838173E0,-5.190053E-1,-1.3402752E0,1.3297578E0,-7.0058465E-1,-1.535835E0,-1.7046105E0,4.2160444E-2,-1.3083321E0,-1.4002458E0,-4.1246557E-1,-1.5954965E0,-8.64344E-1,1.4725264E0,-7.4462116E-2,1.2103188E-1,1.4937015E0,-4.0530074E-1,-1.542787E0,-1.6972518E-1,1.3603756E0,5.897806E-1,-1.66198E0,-1.5897088E0,4.1455728E-1,-1.5863602E0,-9.3623096E-1,1.3973024E0,-1.2776282E0,-1.4090464E0,3.158799E-1,-1.4698031E0,5.239842E-1,-9.980113E-2,-1.7077847E0,1.3318236E0,-5.9127843E-1,-7.885383E-1,4.926848E-1,-1.2916061E0,1.4315084E0,-1.542868E0,4.5127103E-1,-1.3793255E0,7.0146245E-1,4.1398165E-1,-8.837506E-1,1.248402E0,-3.064737E-1,-1.6706052E0,-5.5970895E-1,-3.515128E-1,-1.4119271E0,1.8257101E-1,-1.3194678E0,-1.6663572E0,-1.3383785E-1,1.3646374E0,3.403834E-2,-1.0639368E-1,-1.1635047E0,-1.3234037E0,3.330621E-1,-1.5565519E0,-4.0642264E-1,-1.5601872E0,-8.2900727E-1,6.496251E-1,-1.1058182E0,1.4300905E0,-5.518462E-1,-1.1141865E0,1.8405013E-1,4.6523675E-1,1.6761106E0,-1.2484865E0,8.0633587E-1,2.0501642E-1,1.3995247E0,5.734832E-1,-1.5509148E0,1.6382929E0,-8.045264E-1,1.207158E0,-9.940059E-2,-1.3041037E0,-3.5903994E-2,9.293403E-1,-8.6099005E-1,3.7191305E-1,1.4744185E0,9.053432E-1,-9.948892E-1,1.5360861E0,4.4730726E-1,-4.1885653E-1,1.2857141E0,1.7101612E0,7.868127E-1,2.648548E-1,1.3983419E0,7.057028E-1,-2.71888E-1,-1.297179E-1,-1.4872711E0,-1.3860061E0,-5.0385714E-1,6.635834E-1,-5.729433E-1,1.6781224E0,1.3974521E0,-1.0533162E0,6.1593056E-1,1.3835795E0,3.8244006E-1,7.31394E-1,1.689357E0,-1.4930695E-1,-1.5616577E0,2.2307168E-1,1.5535566E0,-1.6002629E0,-5.898706E-1,-1.1805434E0,-2.5608587E-1,1.5944518E0,5.698054E-1,-1.3994185E0,6.203527E-1,-1.719268E-1,1.3640012E0,1.6691921E0,6.1649454E-1,1.5297736E-1,-1.6212374E0,-8.557081E-1,1.1861094E0,1.6842365E-1,1.5284063E0,-6.473993E-1,-1.6309919E0,1.066202E0,-6.831827E-1,-4.1398326E-1,6.1217993E-1,6.8498427E-1,1.4084661E0,1.483369E0,-6.4407724E-1,-9.716434E-1,6.7335457E-1,-5.2787954E-1,-1.5850986E0,1.3509806E0,-4.3836036E-1,-4.9471462E-1,1.0472844E0,-1.0504968E0,7.066091E-1,1.2818356E0,-2.8294683E-1,1.3763385E0,1.6990008E0,1.588647E0,1.7020519E0,-6.541277E-1,8.4977245E-1,3.889805E-1,1.6687071E0,1.2700015E0,-2.6495504E-1,-1.1637899E0,-7.462345E-2,-1.0649133E0,7.2480506E-1,-1.4899281E0,-7.983889E-1,1.2902824E0,-4.602241E-1,7.398556E-1,-1.0666331E0,-3.8415796E-1,1.0257064E0,9.67245E-1,-6.6332656E-1,1.1021765E0,-6.265143E-1,1.5957991E0,2.2820292E-1,-8.462303E-1,1.4027365E0,-8.663654E-2,1.2662954E0,6.7002386E-1,1.4769369E0,-1.23402E0,7.2044235E-1,1.3608809E0,9.606833E-2,-6.971492E-1,4.0629667E-1,2.5047535E-1,1.5249362E0,-1.3815777E0,9.6351236E-1,-7.232844E-2,-1.1876891E0,1.3896939E0,-3.0945573E-2,-2.7138844E-1,1.4130474E0,7.217882E-1,1.4919397E0,1.9850686E-1,1.7891165E0,-1.0509564E0,1.0163904E0,-1.4171339E0,2.9538313E-1,1.2872051E0,5.307749E-1,-1.1937923E0,5.505247E-1,9.0485555E-1,1.5796956E0,-2.1085082E-1,1.0348624E0,4.132702E-1,1.4039763E0,-3.0824727E-1,-1.5640558E0,5.892806E-1,-1.1951066E0,-1.4857554E0,-1.6455667E-1,-1.4135152E0,-1.5978545E-1,-8.0813855E-1,3.6996675E-1,-1.4925609E0,-5.2687764E-1,2.1026963E-1,-1.3312819E0,-1.6130687E0,-4.1199332E-1,-1.7914879E0,-1.2736115E0,-1.2295994E0,2.4811313E-1,-1.148723E0,-1.0287801E-2,-1.5428911E0,-2.8153017E-1,1.6034606E0,4.3622464E-1,-1.0215611E0,8.9465773E-1],"categories":[],"categories_nodes":[],"categories_segments":[],"categories_sizes":[],"default_left":[1,1,1,1,1,1,1,1,1,1,1,1,1,1,1,1,1,1,1,1,1,1,1,1,1,1,1,1,1,1,1,1,1,1,1,1,1,1,1,1,1,1,1,1,1,1,0,1,1,1,1,1,1,1,1,1,0,1,1,0,0,1,0,1,0,1,1,1,1,1,0,1,1,1,1,1,1,1,1,1,1,1,1,1,1,1,0,1,1,1,1,1,0,1,1,1,1,1,1,1,1,1,1,1,1,1,1,1,0,1,1,1,0,1,1,1,0,1,1,1,0,1,1,1,1,1,1,1,1,1,1,1,1,1,1,0,1,1,1,1,1,1,0,0,0,1,1,1,1,1,1,1,0,1,1,0,0,1,1,1,1,1,0,1,1,1,1,0,0,1,1,1,1,1,1,1,0,1,1,1,1,1,1,1,0,1,1,1,0,1,1,1,1,1,1,1,1,0,1,1,0,1,1,0,0,1,0,1,0,0,0,1,1,1,0,1,1,1,1,0,1,1,1,1,1,1,1,1,1,1,0,1,1,1,1,1,0,1,1,1,0,1,1,1,1,0,0,1,1,1,1,0,1,0,0,0,0,1,0,1,1,1,0,1,1,1,1,1,1,1,0,1,1,1,0,0,0,1,1,1,1,0,0,1,0,1,0,1,0,1,0,0,1,1,1,1,1,1,1,1,1,1,1,0,0,0,0,1,0,0,0,1,1,1,0,1,1,1,1,1,1,1,1,1,1,0,0,1,1,1,1,1,1,1,1,1,0,1,1,0,0,0,1,0,0,1,1,1,1,1,1,0,0,0,0,1,1,1,1,0,1,0,1,0,0,1,0,0,1,0,0,1,1,1,0,1,1,1,1,1,1,1,1,1,0,1,1,1,1,1,1,1,1,1,1,1,0,0,0,1,1,1,1,1,0,1,1,1,1,1,0,1,1,1,1,1,0,1,0,1,1,0,0,0,1,0,0,0,1,0,0,1,0,0,0,1,1,1,1,0,1,0,1,0,1,1,0,0,1,1,0,1,1,0,0,0,0,1,1,0,0,1,0,1,0,0,1,0,0,1,1,1,1,1,1,1,0,1,1,1,1,1,1,1,0,1,1,0,0,1,1,1,1,1,1,0,1,1,1,1,0,1,1,1,0,0,0,1,0,1,1,0,1,1,1,0,0,1,0,1,1,1,1,0,0,0,0,0,0,0,1,1,1,1,1,0,1,1,0,1,1,1,1,0,0,1,1,0,0,1,1,1,1,0,0,0,0,0,0,0,0,0,0,0,0,0,0,0,0,0,0,0,0,0,0,0,0,0,0,0,0,0,0,0,0,0,0,0,0,0,0,0,0,0,0,0,0,0,0,0,0,0,0,0,0,0,0,0,0,0,0,0,0,0,0,0,0,0,0,0,0,0,0,0,0,0,0,0,0,0,0,0,0,0,0,0,0,0,0,0,0,0,0,0,0,0,0,0,0,0,0,0,0,0,0,0,0,0,0,0,0,0,0,0,0,0,0,0,0,0,0,0,0,0,0,0,0,0,0,0,0,0,0,0,0,0,0,0,0,0,0,0,0,0,0,0,0,0,0,0,0,0,0,0,0,0,0,0,0,0,0,0,0,0,0,0,0,0,0,0,0,0,0,0,0,0,0,0,0,0,0,0,0,0,0,0,0,0,0,0,0,0,0,0,0,0,0,0,0,0,0,0,0,0,0,0,0,0,0,0,0,0,0,0,0,0,0,0,0,0,0,0,0,0,0,0,0,0,0,0,0,0,0,0,0,0,0,0,0,0,0,0,0,0,0,0,0,0,0,0,0,0,0,0,0],"id":1,"left_children":[1,3,5,7,9,11,13,15,17,19,21,23,25,27,29,31,33,35,37,39,41,43,45,47,49,51,53,55,57,59,61,63,65,67,69,71,73,75,77,79,81,83,85,87,89,91,-1,93,95,97,99,101,103,105,107,109,-1,111,113,-1,-1,115,-1,117,-1,119,121,123,125,127,-1,129,131,133,135,137,139,141,143,145,147,149,151,153,155,157,-1,159,161,163,165,167,-1,169,171,173,175,177,179,181,183,185,187,189,191,193,195,197,-1,199,201,203,-1,205,207,209,-1,211,213,215,-1,217,219,221,223,225,227,229,231,233,235,237,239,241,243,-1,245,247,249,251,253,255,-1,-1,-1,257,259,261,263,265,267,269,-1,271,273,-1,-1,275,277,279,281,283,-1,285,287,289,291,-1,-1,293,295,297,299,301,303,305,-1,307,309,311,313,315,317,319,-1,321,323,325,-1,327,329,331,333,335,337,339,341,-1,343,345,-1,347,349,-1,-1,351,-1,353,-1,-1,-1,355,357,359,-1,361,363,365,367,-1,369,371,373,375,377,379,381,383,385,387,-1,389,391,393,395,397,-1,399,401,403,-1,405,407,409,411,-1,-1,413,415,417,419,-1,421,-1,-1,-1,-1,423,-1,425,427,429,-1,431,433,435,437,439,441,443,-1,445,447,449,-1,-1,-1,451,453,455,457,-1,-1,459,-1,461,-1,463,-1,465,-1,-1,467,469,471,473,475,477,479,481,483,485,487,-1,-1,-1,-1,489,-1,-1,-1,491,493,495,-1,497,499,501,503,505,507,509,511,513,515,-1,-1,517,519,521,523,525,527,529,531,533,-1,535,537,-1,-1,-1,539,-1,-1,541,543,545,547,549,551,-1,-1,-1,-1,553,555,557,559,-1,561,-1,563,-1,-1,565,-1,-1,567,-1,-1,569,571,573,-1,575,577,579,581,583,585,587,589,591,-1,593,595,597,599,601,603,605,607,609,611,613,-1,-1,-1,615,617,619,621,623,-1,625,627,629,631,633,-1,635,637,639,641,643,-1,645,-1,647,649,-1,-1,-1,651,-1,-1,-1,653,-1,-1,655,-1,-1,-1,657,659,661,663,-1,665,-1,667,-1,669,671,-1,-1,673,675,-1,677,679,-1,-1,-1,-1,681,683,-1,-1,685,-1,687,-1,-1,689,-1,-1,691,693,695,697,699,701,703,-1,705,707,709,711,713,715,717,-1,719,721,-1,-1,723,725,727,729,731,733,-1,735,737,739,741,-1,743,745,747,-1,-1,-1,749,-1,751,753,-1,755,757,759,-1,-1,761,-1,763,765,767,769,-1,-1,-1,-1,-1,-1,-1,771,773,775,777,779,-1,781,783,-1,785,787,789,791,-1,-1,793,795,-1,-1,797,799,801,803,-1,-1,-1,-1,-1,-1,-1,-1,-1,-1,-1,-1,-1,-1,-1,-1,-1,-1,-1,-1,-1,-1,-1,-1,-1,-1,-1,-1,-1,-1,-1,-1,-1,-1,-1,-1,-1,-1,-1,-1,-1,-1,-1,-1,-1,-1,-1,-1,-1,-1,-1,-1,-1,-1,-1,-1,-1,-1,-1,-1,-1,-1,-1,-1,-1,-1,-1,-1,-1,-1,-1,-1,-1,-1,-1,-1,-1,-1,-1,-1,-1,-1,-1,-1,-1,-1,-1,-1,-1,-1,-1,-1,-1,-1,-1,-1,-1,-1,-1,-1,-1,-1,-1,-1,-1,-1,-1,-1,-1,-1,-1,-1,-1,-1,-1,-1,-1,-1,-1,-1,-1,-1,-1,-1,-1,-1,-1,-1,-1,-1,-1,-1,-1,-1,-1,-1,-1,-1,-1,-1,-1,-1,-1,-1,-1,-1,-1,-1,-1,-1,-1,-1,-1,-1,-1,-1,-1,-1,-1,-1,-1,-1,-1,-1,-1,-1,-1,-1,-1,-1,-1,-1,-1,-1,-1,-1,-1,-1,-1,-1,-1,-1,-1,-1,-1,-1,-1,-1,-1,-1,-1,-1,-1,-1,-1,-1,-1,-1,-1,-1,-1,-1,-1,-1,-1,-1,-1,-1,-1,-1,-1,-1,-1,-1,-1,-1,-1,-1,-1,-1,-1,-1,-1,-1,-1,-1,-1,-1,-1,-1,-1,-1,-1,-1,-1,-1,-1,-1,-1,-1,-1,-1,-1,-1,-1,-1,-1,-1,-1,-1,-1,-1],"loss_changes":[1.7054021E4,5.694515E3,2.765876E3,3.9296094E3,5.2859485E2,1.8571436E3,1.5437384E2,2.0898447E3,6.2560706E2,3.4063232E2,1.4090125E2,9.346279E2,3.302168E2,1.4369946E2,1.117025E1,7.747783E2,1.2136038E3,3.9691284E2,6.105847E1,1.6030322E2,1.0123929E2,8.941598E1,7.9084854E0,2.0678223E2,3.8063785E2,1.8537175E2,8.0634E1,8.161011E1,1.3304277E1,5.1287746E0,3.960266E0,6.47667E2,4.1629654E1,9.54997E2,2.3034082E2,2.1797952E2,1.04072784E2,2.466565E1,1.8427395E1,7.2227356E1,8.089795E1,6.052854E1,1.8262474E1,2.9361649E1,3.8646973E1,2.8193893E0,0E0,1.6470898E2,4.9978046E1,1.623391E2,1.5046094E2,1.1641712E2,4.444043E1,4.5150513E1,3.9145546E0,4.3172485E1,0E0,1.2251862E1,6.313202E0,0E0,0E0,8.004856E0,0E0,3.8813086E2,0E0,1.3075943E1,4.255905E1,2.8167206E2,6.3130963E2,1.2295715E2,0E0,4.8112762E1,1.6005193E2,6.892514E1,1.4556555E1,1.2531128E1,1.3426656E1,2.6021805E0,5.0929546E0,3.0056595E1,5.9798965E0,3.8611084E1,3.316697E1,4.94706E1,2.736206E-1,1.0010384E1,0E0,1.889827E1,4.888341E0,6.2116875E1,2.1149345E1,5.1980724E0,0E0,1.0963965E2,5.008008E1,3.178236E1,3.8700676E0,4.55802E1,6.794285E1,1.3885944E2,5.8551636E0,1.07618576E2,5.4688873E0,3.6981297E1,2.7185196E1,1.6583862E1,1.6382458E1,7.8117456E0,0E0,1.437439E1,3.3308212E1,2.7435398E0,0E0,1.3688965E0,6.601721E0,3.732114E0,0E0,3.4010742E2,1.5423637E1,6.3489227E0,0E0,2.5293934E1,6.7060623E0,9.672992E1,1.3123563E2,3.456698E2,4.1998642E1,3.3069946E1,1.3651344E2,5.2444E1,1.5477993E1,1.9267714E2,2.7905022E1,3.280847E1,1.9389448E1,0E0,1.6224098E0,1.853711E1,6.7076416E0,5.162792E0,1.1027822E0,1.4305115E-3,0E0,0E0,0E0,1.7403E1,1.5432933E1,6.132016E0,1.878437E0,3.3817383E1,1.5276146E1,2.3653866E1,0E0,4.1645737E1,7.8444347E0,0E0,0E0,7.5474496E0,4.694618E0,7.24881E0,2.2586317E0,6.7762704E0,0E0,1.4164364E1,8.2088585E0,9.473322E0,3.1101418E0,0E0,0E0,9.8124146E1,3.1080822E1,2.8517578E1,3.278955E1,2.357525E1,2.0138073E0,1.2777863E0,0E0,3.332141E1,5.367449E0,5.9876793E1,8.366653E0,1.1482725E2,4.7234467E1,1.6543579E0,0E0,6.7927734E1,1.2878746E1,2.217814E0,0E0,3.671178E1,2.147274E1,1.5468436E1,1.3681152E1,8.2135315E0,9.980761E0,5.5879774E0,1.8794971E1,0E0,3.4803011E0,3.9764404E0,0E0,6.077774E0,3.2268753E1,0E0,0E0,1.0610962E-1,0E0,6.6741076E0,0E0,0E0,0E0,7.285254E1,3.0418604E2,9.564903E0,0E0,5.4922314E0,1.6123962E-1,1.10967865E1,1.1431506E1,0E0,1.1035347E0,2.0845786E2,1.7868103E1,1.5165042E2,3.2324207E1,1.9239172E2,1.1080818E1,1.641629E1,2.7676647E1,2.3154419E1,0E0,5.0736084E1,2.4507038E1,1.745445E1,2.214563E1,2.3694878E0,0E0,6.22144E1,8.67315E1,1.5061348E1,0E0,1.3319885E1,1.6960571E1,7.946147E0,5.87101E0,0E0,0E0,1.0526535E1,8.275607E0,2.633667E0,3.286377E0,0E0,4.5783753E0,0E0,0E0,0E0,0E0,1.1879635E1,0E0,2.264082E0,5.56565E0,3.7710574E0,0E0,4.7139964E0,1.5314941E0,2.0871338E1,1.9432938E1,9.989393E0,2.668933E0,1.8192564E1,0E0,1.8546272E1,1.285922E1,1.3928392E1,0E0,0E0,0E0,1.387558E0,4.7345996E0,2.4417114E0,2.403933E1,0E0,0E0,3.2547438E0,0E0,1.0850655E1,0E0,2.3955345E0,0E0,8.901205E0,0E0,0E0,2.4608219E0,6.118959E1,7.201355E1,2.4352411E1,3.169756E0,1.5080757E1,2.3371094E1,3.0436954E1,6.108795E0,9.899925E0,4.024933E0,0E0,0E0,0E0,0E0,2.5296463E1,0E0,0E0,0E0,3.6931778E1,2.8759106E1,3.147667E0,0E0,5.6581554E1,6.9637146E0,3.8479523E1,1.7799788E1,4.7043633E0,5.90271E-1,3.8638367E1,5.116247E0,7.028282E0,4.6652603E-1,0E0,0E0,8.080017E0,1.2766785E1,2.1640633E1,7.285042E-1,1.9649472E0,2.1070795E0,7.0396576E0,4.8887205E0,4.8024597E0,0E0,7.2035084E0,2.2567024E1,0E0,0E0,0E0,4.075514E0,0E0,0E0,2.7232666E0,3.8821344E0,2.7957153E0,9.168428E0,1.0985352E1,3.6249054E1,0E0,0E0,0E0,0E0,3.4698242E1,6.274878E1,2.779494E2,3.0638916E1,0E0,4.142151E0,0E0,4.078184E0,0E0,0E0,2.2495155E0,0E0,0E0,4.668812E0,0E0,0E0,9.134833E1,1.7805054E1,1.4350891E1,0E0,4.3562103E1,3.0245457E1,1.0136597E1,3.3845818E1,1.211759E2,5.001803E1,1.2840244E1,1.0010857E1,1.1869156E1,0E0,3.2976036E1,6.325119E0,2.6783447E0,3.3932434E1,1.2231503E2,8.033661E0,7.5374565E0,1.8138628E0,1.2907743E1,1.4068108E0,1.3769348E1,0E0,0E0,0E0,3.8440746E1,1.6952545E1,5.1462677E1,1.954689E0,1.369487E1,0E0,1.6332469E0,9.685649E0,1.775354E1,1.8319786E1,3.3069477E0,0E0,8.71325E0,2.018733E0,6.011042E0,7.064209E0,4.5907917E0,0E0,1.8822021E0,0E0,3.245514E0,1.5297611E0,0E0,0E0,0E0,5.8030396E0,0E0,0E0,0E0,2.159915E-1,0E0,0E0,2.4624124E0,0E0,0E0,0E0,1.5760742E1,5.4491525E0,2.0389503E1,2.4754333E-1,0E0,2.959074E0,0E0,2.7055645E0,0E0,1.5433769E0,1.4735222E1,0E0,0E0,9.2137146E-1,8.20253E0,0E0,3.7423854E0,7.0749664E-1,0E0,0E0,0E0,0E0,8.311134E0,1.1221048E1,0E0,0E0,3.4487305E0,0E0,6.2913895E-1,0E0,0E0,6.267591E0,0E0,0E0,2.6506813E1,2.5893951E1,4.3318848E1,2.355417E1,5.4041176E0,5.9738226E0,3.8600593E0,0E0,1.1791733E1,7.6174927E0,3.1293945E1,5.4335938E0,3.0046038E1,2.5370865E0,1.0155228E1,0E0,6.452156E0,1.0541742E1,0E0,0E0,1.27439575E1,1.1373392E1,2.4686451E1,7.212864E0,2.0731487E1,2.0298817E1,0E0,3.3131561E0,5.6701717E1,9.171795E0,4.3593445E0,0E0,3.1210777E1,1.871045E1,8.888827E0,0E0,0E0,0E0,3.910797E0,0E0,1.5464874E1,2.880588E1,0E0,5.086008E0,7.2316346E0,9.661789E-1,0E0,0E0,3.912054E0,0E0,9.185455E0,9.749268E0,1.3484093E1,6.2511196E0,0E0,0E0,0E0,0E0,0E0,0E0,0E0,9.352005E0,4.199723E0,6.9862556E-1,2.5930176E0,8.9665165E0,0E0,3.0350533E0,4.539423E0,0E0,4.356271E0,6.9597244E-1,5.6473837E0,2.3740845E0,0E0,0E0,3.9526367E-1,4.2627025E0,0E0,0E0,1.1190584E1,7.1616173E0,3.3034096E0,1.067755E1,0E0,0E0,0E0,0E0,0E0,0E0,0E0,0E0,0E0,0E0,0E0,0E0,0E0,0E0,0E0,0E0,0E0,0E0,0E0,0E0,0E0,0E0,0E0,0E0,0E0,0E0,0E0,0E0,0E0,0E0,0E0,0E0,0E0,0E0,0E0,0E0,0E0,0E0,0E0,0E0,0E0,0E0,0E0,0E0,0E0,0E0,0E0,0E0,0E0,0E0,0E0,0E0,0E0,0E0,0E0,0E0,0E0,0E0,0E0,0E0,0E0,0E0,0E0,0E0,0E0,0E0,0E0,0E0,0E0,0E0,0E0,0E0,0E0,0E0,0E0,0E0,0E0,0E0,0E0,0E0,0E0,0E0,0E0,0E0,0E0,0E0,0E0,0E0,0E0,0E0,0E0,0E0,0E0,0E0,0E0,0E0,0E0,0E0,0E0,0E0,0E0,0E0,0E0,0E0,0E0,0E0,0E0,0E0,0E0,0E0,0E0,0E0,0E0,0E0,0E0,0E0,0E0,0E0,0E0,0E0,0E0,0E0,0E0,0E0,0E0,0E0,0E0,0E0,0E0,0E0,0E0,0E0,0E0,0E0,0E0,0E0,0E0,0E0,0E0,0E0,0E0,0E0,0E0,0E0,0E0,0E0,0E0,0E0,0E0,0E0,0E0,0E0,0E0,0E0,0E0,0E0,0E0,0E0,0E0,0E0,0E0,0E0,0E0,0E0,0E0,0E0,0E0,0E0,0E0,0E0,0E0,0E0,0E0,0E0,0E0,0E0,0E0,0E0,0E0,0E0,0E0,0E0,0E0,0E0,0E0,0E0,0E0,0E0,0E0,0E0,0E0,0E0,0E0,0E0,0E0,0E0,0E0,0E0,0E0,0E0,0E0,0E0,0E0,0E0,0E0,0E0,0E0,0E0,0E0,0E0,0E0,0E0,0E0,0E0,0E0,0E0,0E0,0E0,0E0,0E0,0E0,0E0,0E0,0E0,0E0,0E0,0E0,0E0,0E0,0E0,0E0,0E0,0E0,0E0,0E0,0E0,0E0,0E0,0E0,0E0,0E0,0E0,0E0,0E0,0E0,0E0,0E0,0E0,0E0,0E0,0E0,0E0],"parents":[2147483647,0,0,1,1,2,2,3,3,4,4,5,5,6,6,7,7,8,8,9,9,10,10,11,11,12,12,13,13,14,14,15,15,16,16,17,17,18,18,19,19,20,20,21,21,22,22,23,23,24,24,25,25,26,26,27,27,28,28,29,29,30,30,31,31,32,32,33,33,34,34,35,35,36,36,37,37,38,38,39,39,40,40,41,41,42,42,43,43,44,44,45,45,47,47,48,48,49,49,50,50,51,51,52,52,53,53,54,54,55,55,57,57,58,58,61,61,63,63,65,65,66,66,67,67,68,68,69,69,71,71,72,72,73,73,74,74,75,75,76,76,77,77,78,78,79,79,80,80,81,81,82,82,83,83,84,84,85,85,87,87,88,88,89,89,90,90,91,91,93,93,94,94,95,95,96,96,97,97,98,98,99,99,100,100,101,101,102,102,103,103,104,104,105,105,106,106,107,107,109,109,110,110,111,111,113,113,114,114,115,115,117,117,118,118,119,119,121,121,122,122,123,123,124,124,125,125,126,126,127,127,128,128,129,129,130,130,131,131,132,132,133,133,134,134,136,136,137,137,138,138,139,139,140,140,141,141,145,145,146,146,147,147,148,148,149,149,150,150,151,151,153,153,154,154,157,157,158,158,159,159,160,160,161,161,163,163,164,164,165,165,166,166,169,169,170,170,171,171,172,172,173,173,174,174,175,175,177,177,178,178,179,179,180,180,181,181,182,182,183,183,185,185,186,186,187,187,189,189,190,190,191,191,192,192,193,193,194,194,195,195,196,196,198,198,199,199,201,201,202,202,205,205,207,207,211,211,212,212,213,213,215,215,216,216,217,217,218,218,220,220,221,221,222,222,223,223,224,224,225,225,226,226,227,227,228,228,229,229,231,231,232,232,233,233,234,234,235,235,237,237,238,238,239,239,241,241,242,242,243,243,244,244,247,247,248,248,249,249,250,250,252,252,257,257,259,259,260,260,261,261,263,263,264,264,265,265,266,266,267,267,268,268,269,269,271,271,272,272,273,273,277,277,278,278,279,279,280,280,283,283,285,285,287,287,289,289,292,292,293,293,294,294,295,295,296,296,297,297,298,298,299,299,300,300,301,301,302,302,307,307,311,311,312,312,313,313,315,315,316,316,317,317,318,318,319,319,320,320,321,321,322,322,323,323,324,324,327,327,328,328,329,329,330,330,331,331,332,332,333,333,334,334,335,335,337,337,338,338,342,342,345,345,346,346,347,347,348,348,349,349,350,350,355,355,356,356,357,357,358,358,360,360,362,362,365,365,368,368,371,371,372,372,373,373,375,375,376,376,377,377,378,378,379,379,380,380,381,381,382,382,383,383,385,385,386,386,387,387,388,388,389,389,390,390,391,391,392,392,393,393,394,394,395,395,399,399,400,400,401,401,402,402,403,403,405,405,406,406,407,407,408,408,409,409,411,411,412,412,413,413,414,414,415,415,417,417,419,419,420,420,424,424,428,428,431,431,435,435,436,436,437,437,438,438,440,440,442,442,444,444,445,445,448,448,449,449,451,451,452,452,457,457,458,458,461,461,463,463,466,466,469,469,470,470,471,471,472,472,473,473,474,474,475,475,477,477,478,478,479,479,480,480,481,481,482,482,483,483,485,485,486,486,489,489,490,490,491,491,492,492,493,493,494,494,496,496,497,497,498,498,499,499,501,501,502,502,503,503,507,507,509,509,510,510,512,512,513,513,514,514,517,517,519,519,520,520,521,521,522,522,530,530,531,531,532,532,533,533,534,534,536,536,537,537,539,539,540,540,541,541,542,542,545,545,546,546,549,549,550,550,551,551,552,552],"right_children":[2,4,6,8,10,12,14,16,18,20,22,24,26,28,30,32,34,36,38,40,42,44,46,48,50,52,54,56,58,60,62,64,66,68,70,72,74,76,78,80,82,84,86,88,90,92,-1,94,96,98,100,102,104,106,108,110,-1,112,114,-1,-1,116,-1,118,-1,120,122,124,126,128,-1,130,132,134,136,138,140,142,144,146,148,150,152,154,156,158,-1,160,162,164,166,168,-1,170,172,174,176,178,180,182,184,186,188,190,192,194,196,198,-1,200,202,204,-1,206,208,210,-1,212,214,216,-1,218,220,222,224,226,228,230,232,234,236,238,240,242,244,-1,246,248,250,252,254,256,-1,-1,-1,258,260,262,264,266,268,270,-1,272,274,-1,-1,276,278,280,282,284,-1,286,288,290,292,-1,-1,294,296,298,300,302,304,306,-1,308,310,312,314,316,318,320,-1,322,324,326,-1,328,330,332,334,336,338,340,342,-1,344,346,-1,348,350,-1,-1,352,-1,354,-1,-1,-1,356,358,360,-1,362,364,366,368,-1,370,372,374,376,378,380,382,384,386,388,-1,390,392,394,396,398,-1,400,402,404,-1,406,408,410,412,-1,-1,414,416,418,420,-1,422,-1,-1,-1,-1,424,-1,426,428,430,-1,432,434,436,438,440,442,444,-1,446,448,450,-1,-1,-1,452,454,456,458,-1,-1,460,-1,462,-1,464,-1,466,-1,-1,468,470,472,474,476,478,480,482,484,486,488,-1,-1,-1,-1,490,-1,-1,-1,492,494,496,-1,498,500,502,504,506,508,510,512,514,516,-1,-1,518,520,522,524,526,528,530,532,534,-1,536,538,-1,-1,-1,540,-1,-1,542,544,546,548,550,552,-1,-1,-1,-1,554,556,558,560,-1,562,-1,564,-1,-1,566,-1,-1,568,-1,-1,570,572,574,-1,576,578,580,582,584,586,588,590,592,-1,594,596,598,600,602,604,606,608,610,612,614,-1,-1,-1,616,618,620,622,624,-1,626,628,630,632,634,-1,636,638,640,642,644,-1,646,-1,648,650,-1,-1,-1,652,-1,-1,-1,654,-1,-1,656,-1,-1,-1,658,660,662,664,-1,666,-1,668,-1,670,672,-1,-1,674,676,-1,678,680,-1,-1,-1,-1,682,684,-1,-1,686,-1,688,-1,-1,690,-1,-1,692,694,696,698,700,702,704,-1,706,708,710,712,714,716,718,-1,720,722,-1,-1,724,726,728,730,732,734,-1,736,738,740,742,-1,744,746,748,-1,-1,-1,750,-1,752,754,-1,756,758,760,-1,-1,762,-1,764,766,768,770,-1,-1,-1,-1,-1,-1,-1,772,774,776,778,780,-1,782,784,-1,786,788,790,792,-1,-1,794,796,-1,-1,798,800,802,804,-1,-1,-1,-1,-1,-1,-1,-1,-1,-1,-1,-1,-1,-1,-1,-1,-1,-1,-1,-1,-1,-1,-1,-1,-1,-1,-1,-1,-1,-1,-1,-1,-1,-1,-1,-1,-1,-1,-1,-1,-1,-1,-1,-1,-1,-1,-1,-1,-1,-1,-1,-1,-1,-1,-1,-1,-1,-1,-1,-1,-1,-1,-1,-1,-1,-1,-1,-1,-1,-1,-1,-1,-1,-1,-1,-1,-1,-1,-1,-1,-1,-1,-1,-1,-1,-1,-1,-1,-1,-1,-1,-1,-1,-1,-1,-1,-1,-1,-1,-1,-1,-1,-1,-1,-1,-1,-1,-1,-1,-1,-1,-1,-1,-1,-1,-1,-1,-1,-1,-1,-1,-1,-1,-1,-1,-1,-1,-1,-1,-1,-1,-1,-1,-1,-1,-1,-1,-1,-1,-1,-1,-1,-1,-1,-1,-1,-1,-1,-1,-1,-1,-1,-1,-1,-1,-1,-1,-1,-1,-1,-1,-1,-1,-1,-1,-1,-1,-1,-1,-1,-1,-1,-1,-1,-1,-1,-1,-1,-1,-1,-1,-1,-1,-1,-1,-1,-1,-1,-1,-1,-1,-1,-1,-1,-1,-1,-1,-1,-1,-1,-1,-1,-1,-1,-1,-1,-1,-1,-1,-1,-1,-1,-1,-1,-1,-1,-1,-1,-1,-1,-1,-1,-1,-1,-1,-1,-1,-1,-1,-1,-1,-1,-1,-1,-1,-1,-1,-1,-1,-1,-1,-1,-1,-1,-1,-1,-1,-1,-1,-1,-1,-1],"split_conditions":[5E-1,5.636791E3,5E-1,1.8445E3,5E-1,5E-1,5.8308003E3,8.5E-1,2.0021571E2,5E-1,1.0140608E4,5E-1,5E-1,2.007E3,3.1308246E2,5.750492E3,5E-1,8.5E-1,5E-1,1.45E1,2.1127306E2,7.5E-1,5E-1,5E-1,2.0013138E2,5E-1,5.7883745E3,2.56E2,4.6010923E3,4.6827126E0,8.869081E3,2.555E2,7.2614736E3,5.05E1,2.77E2,5E-1,5E-1,8.775495E-1,2.814E3,6.534168E3,5E-1,9.45E1,5E-1,2.4365E3,5E-1,1.059E3,-2.0092271E-2,2.0004083E2,1.9815E3,5E-1,1.627E3,5.15E1,2.0076526E2,1.454E3,6.161826E3,5E-1,2.7335918E-1,1.25E3,4.2943314E-1,8.8905334E-2,-1.7082243E-1,6.287629E3,2.4268568E-1,9.994289E3,2.979397E-1,5E-1,8.304762E3,5E-1,5E-1,5E-1,2.7224627E-1,8.483756E3,5E-1,5E-1,3.1450952E3,2.072E3,5.014457E3,5.007167E3,1.5E0,3.5E1,4.3700714E0,5E-1,6.15E1,2.199E3,6.091494E3,2.5E-1,-1.3159162E-1,7.10224E3,6.091185E3,5E-1,6.905155E3,7.5E-1,2.6169753E-1,5E-1,8.6090446E-1,1.7E3,7.293643E-1,5.89229E3,5.067262E-2,8.5E-1,5E-1,1.785E3,1.36E2,3.219401E3,1.7376178E3,1.0109797E3,3.0792832E3,4.8466265E3,2.3151258E-1,1.75E3,5.05E2,2.9065024E3,2.0072721E-1,1.9028236E1,2.9825E3,1.845E3,2.0899132E-1,5E-1,1.036041E4,3.8E1,-9.707457E-2,5E-1,1.5E0,5E-1,5E-1,5E-1,5E-1,1.0002885E4,5.350872E3,3.2345923E3,5E-1,5E-1,3.6405E3,1.25E1,7.35E1,6.976432E-2,2.05E1,5E-1,5E-1,6.3E1,6.1972365E-3,9.03477E-3,-2.498647E-2,-3.5511576E-2,2.0276126E-1,8.35E1,3.4160042E-1,1.955E3,8.173814E-3,5E-1,1.456E3,7.280449E3,2.5777164E-1,1.0170306E4,6.5017544E3,2.608473E-1,1.0508952E-1,1.772E3,5E-1,5.565686E3,-9.404249E-1,2.55E1,1.7698231E-1,2.95E1,1.625E2,3.3684586E2,1.5875E3,-4.2412426E-2,2.1135068E-1,-5E-1,1.5475E3,1.15E1,5E-1,5.278759E3,6.492361E-1,2.4905E3,1.5384471E-2,4.635E2,2.0631783E-2,5E-1,8.0279183E-1,5.225951E3,8.1859356E-1,1.5660455E0,3.9606586E-2,5.6289453E3,8.362822E-1,4.878369E0,2.9382902E-1,2.3575889E3,5E-1,9.9918805E2,7.9676974E-1,1.47E2,5.5E0,2.5E0,5E-1,2.1993563E-1,-9.577167E-1,8.668159E3,8.430324E-2,1.6165E3,5.8415654E3,-2.2003729E-2,-2.1626112E-1,4.9582314E3,7.8643106E-2,2.5705E3,1.9143336E-1,-9.256048E-2,1.1482873E-1,5.7333443E-2,5E-1,4.338049E3,2.6098824E-1,5E-1,-5E-1,1.5605E3,4.6E1,2.0859584E-2,6.751378E3,5E-1,5.748503E3,5E-1,1.05E1,5E-1,2.4092422E3,4.35E1,7.821676E3,5.55E1,2.0876212E-1,5E-1,5E-1,5E-1,1.545E2,2.7455E3,-1.8740071E-1,2.5E1,5.681705E3,2.44E2,2.141462E-1,5E-1,5E-1,3.107E3,1.5E0,-2.4764185E-1,-7.381845E-2,2.6E1,4.906287E3,5E-1,2.55E1,-1.964869E-1,3.5E1,5.209196E-2,2.0618781E-1,-9.78336E-2,-2.3329507E-1,5.16E2,1.4837565E-1,-5E-1,2.25E1,4.65E1,1.96983E-1,2.3182262E2,5.5958633E0,5E-1,6.984752E3,9.855E2,3.7E1,3.9083047E3,1.6685843E-1,7.266166E3,5E-1,3.066E3,2.515802E-1,-1.1379731E-1,1.84435E-1,-5E-1,6.6654404E3,4.55E1,8.8580205E3,1.6450742E-1,-2.2913871E-2,2.9305E3,1.5255263E-1,2.5074825E1,-1.4467187E-1,6.159705E3,8.31128E-2,4.594295E3,1.9467354E-1,-2.4861151E-1,-7.613492E-1,5E-1,8.5785204E-1,6.9536504E3,2.8E3,2.8028474E3,8.5E-1,5.3523047E3,1.6015E3,4.5E1,5.3720474E-1,2.3364031E-1,4.5853052E-2,1.1029585E-1,2.5669187E-1,1.623E3,2.5084847E-1,2.2312464E-1,-1.0115468E-2,1.521E3,7.5E-1,1.0351661E-1,-1.0801496E-2,6.997375E3,5E-1,-5E-1,7.2456714E3,4.5E1,5E-1,8.5E-1,1.6068125E-1,-5E-1,-6.378206E-1,-2.1400128E-2,1.6492176E-1,3.2762898E3,1.7966038E3,1.95513E1,1.459E3,5.0077405E2,2.501876E-1,4.8793536E2,8.730732E0,4.4912915E3,4.791722E-2,-1.2760096E0,4.0861157E3,6.109904E-4,2.4855554E-1,1.7498866E-1,3.8645175E0,-1.591441E-1,6.495432E-2,5.5336952E-2,7.5E-1,4.8019795E3,4.8259297E3,5E-1,4.425358E3,2.646669E-1,1.1567909E-1,1.0684658E-1,-1.7857973E-1,5E-1,5.7158375E-1,5E-1,6.2694356E-2,-1.3333787E-1,5.4351772E3,-6.6921376E-2,-5E-1,1.4332427E-1,2.6362833E-1,1.5E0,1.0092905E-1,-1.5382919E-1,5E-1,2.4624927E-1,7.997792E-2,5E-1,8.381051E3,3.866989E-1,1.1281382E-1,5E-1,4.568385E3,1.22E2,5E-1,5E-1,5E-1,4.725824E3,6.3E1,9.329332E3,1.2450753E-1,2.1032017E3,5E-1,5.652107E3,2.4124407E3,5E-1,1.8301735E1,8.2464397E-1,4.5531484E3,2.2451923E0,9.006454E0,7.253668E3,1.9989796E-1,6.247794E-2,2.3534322E-1,6.2723565E-1,5E-1,6.95E1,3.65E1,6.023348E3,1.5442985E-1,2.4885E3,2.495984E3,5E-1,5E-1,5.492657E3,1.01433225E-1,4.1514185E3,5.238654E0,4.3903086E3,5E-1,2.6052148E3,-2.0188975E-1,3.05E1,5.8410674E-2,2.2415E3,-7.247603E-1,-9.062104E-2,1.5075316E-1,1.1465166E-1,7E0,4.036398E-2,2.2289722E-1,7.729258E-2,5.5E-1,-1.4442673E-1,7.516591E-2,7.3349443E3,2.2039634E-1,2.512467E-1,8.395445E-2,5E-1,6.2533125E3,6.0392827E3,2.5E1,1.1047832E-1,1.5E0,9.838667E-3,5E-1,1.2887408E-1,4.5E1,8.5E-1,1.6706541E-1,-1.1397593E-1,6.837643E3,8.5E-1,2.2277501E-1,6.289486E3,3.2006577E1,-8.1271395E-2,1.6757643E-1,-2.5055453E-1,-5.805031E-2,6.6750273E3,5.55E1,-1.9261262E-1,1.5030419E-2,2.1E1,-5.3813055E-2,-1.2267277E0,-4.055815E-2,-2.1985443E-1,1.8972732E-2,2.8932713E-2,-1.65238E-1,8.5E-1,1.2005E3,3.05E1,4.897397E3,7.6754624E-3,-7.9456913E-1,-9.530841E-1,2.3013578E-1,7.56E2,5E-1,1.5105E3,5E-1,8.5E-1,4.5E-1,5E-1,2.4817748E-1,1.5995E3,3.2517476E3,2.2307777E-1,8.859535E-3,5.3149404E3,1.5738009E3,9.843151E2,2.7102299E0,2.5E0,7.7005416E-1,3.09949E-2,1.5259256E1,1.5340957E3,3.5000002E-1,5E-1,-4.2725414E-2,5E-1,5E-1,1.139E3,2.1427883E-1,-3.495047E-2,2.164767E-1,2.5E-1,2.6220578E-1,9.273392E3,5.359471E-1,-2.5106268E-2,8.140532E-1,8.1307656E3,1.11113384E-1,-1.2075418E-1,-2.0055354E-2,2.4832046E3,-5.288327E-2,9.04E2,1.137709E-1,4.6889736E3,5.6113043E0,-1.9409318E-1,-5.350673E-2,4.2280685E-2,2.2265056E-1,-4.4031076E-2,-2.1237662E-1,2.555271E-1,1.5095E3,5.4111763E3,1.3835E3,2.515E2,4.283922E3,5.1416267E-2,8.143671E3,3.146792E3,2.2431551E-1,2.5496117E2,1E3,6.87E2,1.575E2,-1.9001462E-1,3.8217314E-2,3.55E2,1.595E2,1.1834629E-1,-2.0757261E-1,8.5E-1,1.3465E3,9.5E0,5.553007E3,-2.3037526E-1,-2.556916E-1,6.324067E-3,-1.9624983E-1,-2.1003687E-1,-6.1869837E-2,-2.393245E-1,-1.296516E-1,2.2087897E-1,-1.1169318E-2,1.8154783E-2,2.2405523E-1,-6.0795113E-2,-2.3141806E-1,-2.5458777E-2,2.0405635E-1,8.84671E-2,-2.4929701E-1,-2.3845632E-1,6.2183592E-2,-2.3795404E-1,-1.4043465E-1,2.0959537E-1,-1.9164424E-1,-2.1135697E-1,4.738199E-2,-2.2047047E-1,7.8597635E-2,-1.497017E-2,-2.561677E-1,1.9977355E-1,-8.869177E-2,-1.18280746E-1,7.3902726E-2,-1.9374092E-1,2.1472627E-1,-2.3143022E-1,6.7690656E-2,-2.0689884E-1,1.0521937E-1,6.2097248E-2,-1.325626E-1,1.872603E-1,-4.597106E-2,-2.505908E-1,-8.3956346E-2,-5.272692E-2,-2.1178907E-1,2.7385652E-2,-1.9792017E-1,-2.4995358E-1,-2.0075679E-2,2.0469561E-1,5.105751E-3,-1.5959052E-2,-1.7452571E-1,-1.9851057E-1,4.995932E-2,-2.334828E-1,-6.09634E-2,-2.3402809E-1,-1.2435109E-1,9.7443774E-2,-1.6587272E-1,2.1451358E-1,-8.2776934E-2,-1.6712798E-1,2.7607521E-2,6.978551E-2,2.514166E-1,-1.8727298E-1,1.20950386E-1,3.0752463E-2,2.099287E-1,8.602249E-2,-2.3263723E-1,2.4574395E-1,-1.2067896E-1,1.810737E-1,-1.4910089E-2,-1.9561557E-1,-5.385599E-3,1.3940105E-1,-1.2914851E-1,5.578696E-2,2.2116278E-1,1.3580148E-1,-1.4923339E-1,2.3041292E-1,6.709609E-2,-6.282848E-2,1.9285713E-1,2.565242E-1,1.1802191E-1,3.972822E-2,2.097513E-1,1.0585542E-1,-4.07832E-2,-1.9457687E-2,-2.2309066E-1,-2.0790093E-1,-7.557857E-2,9.9537514E-2,-8.594149E-2,2.5171837E-1,2.0961782E-1,-1.5799744E-1,9.238958E-2,2.0753694E-1,5.736601E-2,1.0970911E-1,2.5340357E-1,-2.2396043E-2,-2.3424865E-1,3.3460755E-2,2.330335E-1,-2.4003944E-1,-8.848059E-2,-1.7708153E-1,-3.8412884E-2,2.3916778E-1,8.547081E-2,-2.0991278E-1,9.305291E-2,-2.578902E-2,2.0460019E-1,2.5037882E-1,9.2474185E-2,2.2946605E-2,-2.4318562E-1,-1.2835622E-1,1.7791642E-1,2.526355E-2,2.2926095E-1,-9.71099E-2,-2.446488E-1,1.5993032E-1,-1.0247741E-1,-6.209749E-2,9.182699E-2,1.0274764E-1,2.1126993E-1,2.2250536E-1,-9.661159E-2,-1.4574651E-1,1.0100319E-1,-7.918193E-2,-2.377648E-1,2.026471E-1,-6.5754056E-2,-7.4207194E-2,1.5709266E-1,-1.5757453E-1,1.0599136E-1,1.9227535E-1,-4.2442024E-2,2.0645078E-1,2.5485015E-1,2.3829706E-1,2.553078E-1,-9.811916E-2,1.2746587E-1,5.834708E-2,2.5030607E-1,1.9050024E-1,-3.974326E-2,-1.7456849E-1,-1.1193518E-2,-1.5973699E-1,1.08720765E-1,-2.2348922E-1,-1.1975834E-1,1.9354236E-1,-6.9033615E-2,1.1097834E-1,-1.5999497E-1,-5.7623696E-2,1.5385596E-1,1.4508675E-1,-9.949899E-2,1.6532649E-1,-9.397715E-2,2.3936987E-1,3.423044E-2,-1.2693456E-1,2.1041049E-1,-1.2995482E-2,1.8994433E-1,1.00503586E-1,2.2154056E-1,-1.85103E-1,1.0806636E-1,2.0413214E-1,1.441025E-2,-1.04572386E-1,6.09445E-2,3.7571304E-2,2.2874044E-1,-2.0723666E-1,1.4452685E-1,-1.0849266E-2,-1.7815337E-1,2.0845409E-1,-4.641836E-3,-4.0708266E-2,2.1195713E-1,1.0826824E-1,2.2379096E-1,2.9776031E-2,2.683675E-1,-1.5764347E-1,1.5245858E-1,-2.125701E-1,4.430747E-2,1.9308077E-1,7.961623E-2,-1.7906886E-1,8.257871E-2,1.3572834E-1,2.3695435E-1,-3.1627625E-2,1.5522936E-1,6.1990533E-2,2.1059646E-1,-4.6237092E-2,-2.3460838E-1,8.8392094E-2,-1.79266E-1,-2.2286333E-1,-2.4683502E-2,-2.120273E-1,-2.396782E-2,-1.2122079E-1,5.5495013E-2,-2.2388414E-1,-7.9031646E-2,3.1540446E-2,-1.996923E-1,-2.4196032E-1,-6.1799E-2,-2.687232E-1,-1.9104174E-1,-1.8443991E-1,3.721697E-2,-1.7230846E-1,-1.5431702E-3,-2.3143367E-1,-4.2229526E-2,2.4051909E-1,6.5433696E-2,-1.5323418E-1,1.3419867E-1],"split_indices":[37,9,18,7,48,48,9,0,19,15,8,15,15,7,19,10,15,0,18,3,19,0,15,47,19,14,9,11,8,21,8,11,8,3,11,14,18,1,7,9,18,11,18,7,39,7,0,19,7,14,7,11,19,7,9,49,0,19,1,0,0,9,0,8,0,18,8,49,48,49,0,8,38,38,9,7,10,10,17,4,21,47,11,7,10,0,0,9,9,38,8,0,0,28,1,19,1,9,5,0,47,7,11,9,8,19,9,10,0,19,19,8,0,6,7,7,0,49,8,3,0,49,17,39,39,18,14,8,10,8,38,39,7,3,3,0,11,48,38,3,5,5,0,0,0,2,1,7,5,38,7,9,0,8,9,0,0,7,28,10,6,11,0,17,3,19,7,0,0,17,7,3,14,9,1,7,0,11,5,49,1,10,1,21,0,9,1,21,0,9,28,19,1,11,24,11,24,0,6,8,0,7,8,0,0,10,0,7,0,0,0,5,15,10,0,14,17,7,3,0,10,38,10,38,3,38,9,11,8,3,0,38,38,15,11,7,0,4,10,3,0,39,39,7,11,0,0,3,8,20,17,0,4,0,0,0,0,7,0,17,2,2,0,19,5,40,9,7,3,8,0,9,0,7,0,0,0,17,9,11,8,0,0,7,0,6,0,10,0,10,0,0,6,14,1,8,7,9,0,9,7,4,1,0,0,0,0,7,0,0,0,7,0,1,0,8,28,17,8,4,14,0,1,17,6,0,0,8,8,6,7,19,1,19,21,10,0,6,9,0,0,0,21,0,0,1,0,10,10,15,9,0,0,0,0,15,5,14,5,0,10,0,2,0,0,11,0,0,14,0,0,40,8,5,0,40,10,2,18,28,49,8,11,8,0,8,39,10,9,39,21,1,9,21,6,8,0,0,0,1,18,3,3,10,0,7,8,40,48,10,0,9,21,9,15,8,0,17,0,7,6,0,0,0,2,0,0,0,0,0,0,8,0,0,0,39,9,8,4,0,11,0,14,0,4,0,0,0,9,0,0,9,6,0,0,0,0,8,3,0,0,3,0,6,0,0,5,0,0,0,7,17,10,5,6,6,0,7,28,7,14,0,0,28,0,7,8,0,0,8,8,8,21,24,1,0,5,19,0,49,0,16,28,7,0,0,0,0,0,8,1,0,1,8,1,0,0,8,0,7,5,8,21,0,0,0,0,0,0,0,7,10,7,7,8,0,8,8,0,19,19,7,11,0,0,19,3,0,0,0,7,11,10,0,0,0,0,0,0,0,0,0,0,0,0,0,0,0,0,0,0,0,0,0,0,0,0,0,0,0,0,0,0,0,0,0,0,0,0,0,0,0,0,0,0,0,0,0,0,0,0,0,0,0,0,0,0,0,0,0,0,0,0,0,0,0,0,0,0,0,0,0,0,0,0,0,0,0,0,0,0,0,0,0,0,0,0,0,0,0,0,0,0,0,0,0,0,0,0,0,0,0,0,0,0,0,0,0,0,0,0,0,0,0,0,0,0,0,0,0,0,0,0,0,0,0,0,0,0,0,0,0,0,0,0,0,0,0,0,0,0,0,0,0,0,0,0,0,0,0,0,0,0,0,0,0,0,0,0,0,0,0,0,0,0,0,0,0,0,0,0,0,0,0,0,0,0,0,0,0,0,0,0,0,0,0,0,0,0,0,0,0,0,0,0,0,0,0,0,0,0,0,0,0,0,0,0,0,0,0,0,0,0,0,0,0,0,0,0,0,0,0,0,0,0,0,0,0,0,0,0,0,0,0,0,0,0,0,0,0,0,0,0,0,0,0,0,0,0,0,0,0,0,0,0],"split_type":[0,0,0,0,0,0,0,0,0,0,0,0,0,0,0,0,0,0,0,0,0,0,0,0,0,0,0,0,0,0,0,0,0,0,0,0,0,0,0,0,0,0,0,0,0,0,0,0,0,0,0,0,0,0,0,0,0,0,0,0,0,0,0,0,0,0,0,0,0,0,0,0,0,0,0,0,0,0,0,0,0,0,0,0,0,0,0,0,0,0,0,0,0,0,0,0,0,0,0,0,0,0,0,0,0,0,0,0,0,0,0,0,0,0,0,0,0,0,0,0,0,0,0,0,0,0,0,0,0,0,0,0,0,0,0,0,0,0,0,0,0,0,0,0,0,0,0,0,0,0,0,0,0,0,0,0,0,0,0,0,0,0,0,0,0,0,0,0,0,0,0,0,0,0,0,0,0,0,0,0,0,0,0,0,0,0,0,0,0,0,0,0,0,0,0,0,0,0,0,0,0,0,0,0,0,0,0,0,0,0,0,0,0,0,0,0,0,0,0,0,0,0,0,0,0,0,0,0,0,0,0,0,0,0,0,0,0,0,0,0,0,0,0,0,0,0,0,0,0,0,0,0,0,0,0,0,0,0,0,0,0,0,0,0,0,0,0,0,0,0,0,0,0,0,0,0,0,0,0,0,0,0,0,0,0,0,0,0,0,0,0,0,0,0,0,0,0,0,0,0,0,0,0,0,0,0,0,0,0,0,0,0,0,0,0,0,0,0,0,0,0,0,0,0,0,0,0,0,0,0,0,0,0,0,0,0,0,0,0,0,0,0,0,0,0,0,0,0,0,0,0,0,0,0,0,0,0,0,0,0,0,0,0,0,0,0,0,0,0,0,0,0,0,0,0,0,0,0,0,0,0,0,0,0,0,0,0,0,0,0,0,0,0,0,0,0,0,0,0,0,0,0,0,0,0,0,0,0,0,0,0,0,0,0,0,0,0,0,0,0,0,0,0,0,0,0,0,0,0,0,0,0,0,0,0,0,0,0,0,0,0,0,0,0,0,0,0,0,0,0,0,0,0,0,0,0,0,0,0,0,0,0,0,0,0,0,0,0,0,0,0,0,0,0,0,0,0,0,0,0,0,0,0,0,0,0,0,0,0,0,0,0,0,0,0,0,0,0,0,0,0,0,0,0,0,0,0,0,0,0,0,0,0,0,0,0,0,0,0,0,0,0,0,0,0,0,0,0,0,0,0,0,0,0,0,0,0,0,0,0,0,0,0,0,0,0,0,0,0,0,0,0,0,0,0,0,0,0,0,0,0,0,0,0,0,0,0,0,0,0,0,0,0,0,0,0,0,0,0,0,0,0,0,0,0,0,0,0,0,0,0,0,0,0,0,0,0,0,0,0,0,0,0,0,0,0,0,0,0,0,0,0,0,0,0,0,0,0,0,0,0,0,0,0,0,0,0,0,0,0,0,0,0,0,0,0,0,0,0,0,0,0,0,0,0,0,0,0,0,0,0,0,0,0,0,0,0,0,0,0,0,0,0,0,0,0,0,0,0,0,0,0,0,0,0,0,0,0,0,0,0,0,0,0,0,0,0,0,0,0,0,0,0,0,0,0,0,0,0,0,0,0,0,0,0,0,0,0,0,0,0,0,0,0,0,0,0,0,0,0,0,0,0,0,0,0,0,0,0,0,0,0,0,0,0,0,0,0,0,0,0,0,0,0,0,0,0,0,0,0,0,0,0,0,0,0,0,0,0,0,0,0,0,0,0,0,0,0,0,0,0,0,0,0,0,0,0,0,0,0,0,0,0,0,0,0,0,0,0,0,0,0,0,0,0,0,0,0,0,0,0,0,0,0,0],"sum_hessian":[2.4457469E4,1.5073504E4,9.383964E3,1.321089E4,1.8626149E3,8.795414E3,5.885502E2,1.1623047E4,1.5878423E3,1.6069272E3,2.5568768E2,7.8799297E3,9.154843E2,5.549619E2,3.3588284E1,8.196386E3,3.4266614E3,1.0622633E3,5.25579E2,1.3828145E3,2.2411272E2,2.2013573E2,3.5551956E1,6.633518E3,1.2464114E3,6.346834E2,2.808009E2,5.206146E2,3.4347233E1,4.95798E0,2.8630302E1,8.063392E3,1.3299365E2,2.186366E3,1.2402953E3,7.1747125E2,3.447921E2,5.078075E2,1.7771484E1,9.698936E1,1.2858252E3,1.6517795E2,5.8934765E1,1.2670111E2,9.3434616E1,3.283122E1,2.7207398E0,6.538764E3,9.475408E1,4.1992166E2,8.2648975E2,3.0163904E2,3.3304437E2,2.6499243E2,1.5808493E1,5.1319965E2,7.415034E0,8.906438E0,2.5440794E1,2.4826367E0,2.4753435E0,1.3857933E1,1.4772369E1,8.008445E3,5.4947155E1,7.514298E1,5.7850666E1,9.3283453E2,1.2535315E3,1.2167634E3,2.3531853E1,2.4734764E2,4.7012363E2,3.240335E2,2.075859E1,4.908254E2,1.698207E1,1.0361061E1,7.4104233E0,5.878114E1,3.820822E1,1.2516506E3,3.4174454E1,1.5205737E2,1.312057E1,5.5461655E1,3.4731112E0,1.153086E2,1.1392508E1,6.0558586E1,3.287603E1,6.193367E0,2.6637852E1,1.3239244E3,5.21484E3,7.472896E1,2.002512E1,1.7557054E2,2.4435114E2,6.011064E2,2.2538335E2,2.7738297E2,2.4256075E1,1.58922E2,1.7412236E2,2.2975006E2,3.5242363E1,7.658376E0,8.150116E0,3.442889E2,1.6891072E2,6.440846E0,2.4655917E0,1.6045118E1,9.395676E0,6.192445E0,7.6654887E0,7.9624385E3,4.6006374E1,7.291592E1,2.2270625E0,3.286006E1,2.4990606E1,6.250007E2,3.0783383E2,1.0067536E3,2.4677792E2,8.413929E2,3.7537054E2,2.3431824E2,1.3029398E1,3.7080795E2,9.931567E1,2.8873605E2,3.529745E1,4.2007747E0,1.6557816E1,8.641759E1,4.0440784E2,8.636719E0,8.345351E0,7.8923116E0,2.4687495E0,2.7238767E0,4.6865463E0,4.1229683E1,1.7551455E1,8.133116E0,3.0075104E1,1.2301412E3,2.1509459E1,2.6981056E1,7.193398E0,1.332341E2,1.8823275E1,1.0890969E1,2.2296007E0,5.919064E0,4.954259E1,1.1084674E2,4.4618626E0,8.177374E0,3.215134E0,4.3736134E1,1.6822453E1,1.38572035E1,1.9018826E1,2.4953508E0,3.6980162E0,1.2810958E3,4.2828545E1,4.979028E3,2.3581168E2,6.561679E1,9.112169E0,1.7794811E1,2.2303085E0,1.6568675E2,9.8837805E0,1.9586055E2,4.849058E1,2.1754883E2,3.8355756E2,2.2194086E2,3.442498E0,2.3542453E2,4.1958427E1,4.4549766E0,1.98011E1,4.669859E1,1.12223404E2,1.38420105E1,1.6028035E2,1.9193454E2,3.7815517E1,7.880624E0,2.736174E1,3.2127888E0,4.445587E0,3.415658E2,2.723094E0,6.7096115E1,1.0181461E2,2.9785483E0,3.4622977E0,1.3582511E1,2.4626086E0,5.4477086E0,3.9479668E0,3.96709E0,2.2253547E0,5.8280464E3,2.1343918E3,1.0083726E1,3.592265E1,1.2570625E1,6.0345295E1,1.9232252E1,1.362781E1,4.2152295E0,2.0775377E1,2.7082468E2,3.54176E2,1.6125378E2,1.4658005E2,9.445022E2,6.2251408E1,1.2029741E2,1.2648052E2,8.381924E2,3.2005348E0,3.328232E2,4.2547318E1,4.7378876E1,1.8693936E2,1.0807164E1,2.2222335E0,2.1369455E2,1.571134E2,9.5622826E1,3.6928384E0,1.3351507E1,2.7538455E2,1.7777727E1,1.7519724E1,1.40798235E1,2.477992E0,7.8781136E1,7.6364503E0,3.7489276E2,2.9515083E1,3.4613302E0,5.175389E0,2.210467E0,6.1348844E0,2.2201314E0,5.67218E0,3.802345E1,3.2062368E0,1.0363259E1,7.188196E0,5.1896553E0,2.9434605E0,8.630907E0,2.1444197E1,1.1064835E3,1.2365769E2,1.0631814E1,1.0877645E1,2.130372E1,5.6773357E0,1.2013613E2,1.3097975E1,1.1370747E1,7.452527E0,3.702893E0,2.216171E0,4.43465E1,5.196089E0,7.182257E1,3.902417E1,2.230305E0,2.2315576E0,5.709565E0,2.4678087E0,4.150794E1,2.2281976E0,1.4588092E1,2.2343616E0,9.8927145E0,3.9644895E0,1.4562719E1,4.456106E0,3.0360577E2,9.7749005E2,3.2492382E1,1.0336163E1,7.044761E1,4.9085806E3,7.26885E1,1.6312317E2,5.7925945E1,7.6908445E0,6.8939304E0,2.218239E0,3.964539E0,1.3830272E1,1.6222272E2,3.4640343E0,6.9151216E0,2.968659E0,9.100435E1,1.048562E2,4.47837E1,3.7068837E0,1.6075407E2,5.6794758E1,3.464492E2,3.7108368E1,5.915216E0,2.1602563E2,2.1516243E2,2.0262093E1,3.7500996E1,4.4574323E0,2.2218115E0,2.233165E0,1.2209802E1,3.4488785E1,1.0627386E2,5.949547E0,5.6767406E0,8.16527E0,1.4099167E2,1.9288687E1,1.8971931E2,2.2152348E0,2.1491936E1,1.6323584E1,3.2049956E0,4.675628E0,4.669228E0,2.269251E1,2.2208514E0,2.224736E0,3.3638928E2,5.176512E0,6.117091E1,5.9252014E0,6.837888E1,3.3435726E1,1.1125576E1,2.4569345E0,2.713436E0,2.7342725E0,5.3066377E3,5.2140875E2,1.2210757E3,9.133163E2,3.4412777E0,6.6424484E0,2.2222772E0,1.0348349E1,4.2002716E0,5.6145023E1,1.674585E1,2.486402E0,2.4801111E0,1.1147698E1,1.8543015E1,2.2323608E0,1.3003255E2,1.4079213E2,3.5120102E2,2.974994E0,1.15309586E2,4.59442E1,4.4389908E1,1.0219013E2,8.23843E2,1.2065913E2,4.929702E0,5.7321705E1,1.1731899E2,2.9784124E0,1.1353416E2,1.2946369E1,4.8068875E2,3.5750363E2,2.3059612E2,1.022271E2,3.5832176E1,6.7151413E0,3.7957424E1,9.421448E0,1.8471907E2,2.2202857E0,3.4406087E0,7.3665557E0,6.1660408E1,1.5203413E2,1.3842928E2,1.868413E1,9.3165886E1,2.456944E0,4.952822E0,8.3986845E0,1.6773119E2,1.07653366E2,1.5559071E1,2.2186558E0,8.899372E0,8.620353E0,4.677167E0,7.4103966E1,4.674733E0,2.9617171E0,3.7266916E2,2.2235885E0,2.4834618E1,4.6804657E0,2.963348E0,2.212041E0,2.2270625E0,3.5796387E1,2.4620178E0,7.901241E0,2.4788795E0,4.7093167E0,2.7203445E0,2.4693108E0,4.448212E0,4.1826954E0,1.8741627E1,2.7025695E0,1.1005817E3,5.9018173E0,8.856801E1,3.5089684E1,2.9727325E0,7.6590815E0,2.7221406E0,8.155503E0,3.4847083E0,1.7819012E1,1.166716E2,3.4645307E0,2.9721394E0,1.0125835E1,6.4527726E0,4.9179745E0,5.427418E0,3.8919083E1,2.222275E0,2.9738138E0,6.95951E1,2.2274666E0,2.9886374E1,9.137796E0,2.982971E0,2.7265942E0,3.8292274E1,3.2156618E0,1.2117173E1,2.4709187E0,3.4543571E0,6.438357E0,2.2305624E0,2.2255437E0,9.875379E1,2.0485197E2,9.4387E2,3.3620106E1,2.5797215E1,6.695166E0,4.685879E0,5.650283E0,1.422188E1,5.6225727E1,1.3245142E3,3.5840664E3,5.135074E1,2.133776E1,9.9131256E1,6.3991917E1,4.621354E1,1.1712406E1,4.469126E0,3.2217178E0,1.4191846E2,2.030427E1,7.278547E1,1.8218874E1,3.518385E1,6.967235E1,2.224457E0,4.2559242E1,1.3471991E2,2.6034168E1,5.432679E1,2.46797E0,5.594294E1,2.9050626E2,3.117017E1,5.938197E0,2.2213895E0,3.6938264E0,5.4571297E1,1.6145435E2,1.1530216E2,9.986027E1,3.221185E0,1.7040907E1,9.398213E0,2.8102781E1,2.2318125E0,2.2256196E0,9.471304E0,2.7384973E0,7.2018037E0,2.7286983E1,9.810381E1,8.170048E0,3.724802E0,2.224745E0,3.199503E0,2.477238E0,3.2181075E0,4.9471626E0,4.1343327E1,9.9648346E1,1.3839923E1,5.4487634E0,1.6982205E2,1.9897264E1,2.476968E0,1.9014967E1,1.1372251E1,4.951333E0,1.2579905E1,1.0112606E1,1.0556477E1,3.2583282E2,2.4585984E0,2.7179132E0,5.2277916E1,8.892993E0,2.7224963E0,3.202705E0,3.3969425E1,3.4409462E1,1.5367504E1,1.8068222E1,2.9625808E3,2.344057E3,3.696325E1,4.844455E2,4.530555E2,7.6802014E2,8.4770026E2,6.561604E1,4.18245E0,2.4599986E0,3.2039864E0,7.144362E0,2.960266E0,1.37855835E1,2.239372E0,8.908326E0,1.0949283E2,2.053972E1,1.3659383E2,4.1982956E0,3.0713504E2,4.4065975E1,1.09621765E2,5.687822E0,3.1641956E1,1.4302243E1,4.2159546E1,2.230361E0,8.777476E1,1.4415375E1,7.902009E2,3.3642097E1,5.551985E1,6.5139275E1,2.4569833E0,2.4727182E0,5.5103157E1,2.2185493E0,1.1508224E2,2.2367585E0,2.4363708E1,8.917045E1,9.957814E0,2.988555E0,4.7723898E2,3.449765E0,3.4136623E1,3.23367E2,8.604555E1,1.4455057E2,9.8495544E1,3.7315457E0,3.085831E1,4.9738665E0,2.73215E0,3.9829912E0,4.4525175E0,3.350491E1,7.1866665E0,2.2347815E0,1.489525E2,3.5766575E1,4.560734E1,1.6053064E1,1.4808072E2,3.9534233E0,9.3751236E1,4.467804E1,2.4702816E0,1.6213848E1,9.04507E1,2.7151854E0,2.2271423E0,2.7256796E0,2.4889681E0,5.9097166E0,1.6525981E2,2.4713857E0,9.574666E1,1.1906707E1,1.308397E1,2.4751003E0,4.1853585E0,4.7140136E0,3.4681346E0,5.152218E0,2.2107897E0,2.4663775E0,6.645721E1,7.6467614E0,2.2223957E0,2.4523373E0,3.6799185E2,4.6773167E0,3.44793E0,2.1386686E1,2.456993E0,2.2234726E0,3.7025971E0,3.209379E1,2.4838367E0,2.2254803E0,2.2232726E0,2.2249393E0,7.688245E2,3.3175717E2,2.9552565E0,2.946561E0,3.1730299E1,5.6837708E1,2.459332E0,3.2630352E1,2.224486E0,5.434595E0,2.471625E0,5.6838784E0,1.4359287E1,3.459725E0,9.485697E1,2.1814627E1,7.4060135E0,2.7198217E0,3.7312229E0,2.7215495E0,2.2239685E0,3.2034497E0,3.6699535E1,2.21955E0,2.7324953E0,2.715388E1,3.7140684E0,5.4237275E0,2.2418175E0,3.6050457E1,2.7258422E0,9.391331E0,3.717143E0,2.7212138E0,4.865469E1,5.0099102E1,9.832206E1,1.06529915E2,9.347182E2,9.151764E0,1.413823E1,1.9481876E1,8.430028E0,1.7367186E1,4.4598904E0,2.2352757E0,2.2208147E0,2.4650648E0,5.155812E0,9.066068E0,5.3271942E1,2.9537864E0,7.721486E2,5.523655E2,8.343418E2,2.7497244E3,2.4141539E1,2.72092E1,2.4570022E0,1.888076E1,9.494691E1,4.1843534E0,3.977282E1,6.4407225E0,4.485778E0,7.2266283E0,1.0000301E2,4.1915436E1,3.7083297E0,1.659594E1,7.834339E0,6.495113E1,4.1977715E0,1.4021103E1,1.0156462E1,2.5027388E1,6.2715137E1,6.957211E0,4.0328434E1,2.2308078E0,1.2329873E2,1.1421179E1,6.462304E0,1.9571863E1,1.0865695E1,4.3461094E1,8.902722E0,4.7040215E1,2.78134E2,1.2372249E1,2.1053373E1,1.01167965E1,2.9787486E0,5.159255E1,1.1308356E2,2.2186089E0,6.466479E1,3.519548E1,1.4066273E1,2.9746344E0,6.428545E0,2.9696684E0,4.9293056E0,2.3173477E1,2.2377992E0,7.233505E0,2.4789574E0,4.7228465E0,2.380602E1,3.4809628E0,4.911045E1,4.8993362E1,5.941046E0,2.2290013E0,6.3902767E1,3.5745575E1,1.1371432E1,2.468491E0,2.229366E0,3.2193975E0,2.2181764E0,1.6760387E2,2.705726E0,1.7191538E1,1.679153E1,2.2234359E0,5.930267E0,5.4419837E0,8.634969E0,3.944936E0,7.644976E0,2.4676301E0,2.9426157E0,7.6138606E0,3.2336957E2,2.4632585E0,3.6515823E1,1.5762095E1,6.6713037E0,2.2216895E0,1.4617286E1,1.9352139E1,2.8498344E1,5.9111156E0,1.1155798E1,4.211706E0,1.5341084E1,2.7271378E0],"tree_param":{"num_deleted":"0","num_feature":"51","num_nodes":"805","size_leaf_vector":"0"}},{"base_weights":[-5.0275675E-3,-5.864128E-1,9.3301827E-1,-7.8279746E-1,8.613927E-1,1.0543823E0,-8.948729E-1,-1.063024E0,-1.4758496E-1,1.0521692E0,-2.0831625E-1,1.16686E0,-3.7206933E-1,-1.014847E0,7.377897E-1,-1.0984302E0,1.6953287E0,2.6194844E-1,-1.024838E0,1.1413444E0,-5.322918E-1,-4.5657527E-1,1.2038472E0,1.311011E0,4.409908E-1,-7.9732734E-1,1.9132744E-1,-1.0685996E0,1.3449434E0,-1.3507229E-1,1.1485012E0,-9.1900414E-1,-1.4907106E0,-6.0542256E-1,6.849679E-1,-1.076539E0,1.6316547E0,1.2740265E0,9.131895E-2,-1.2061996E0,-3.848715E-2,-6.2113297E-1,1.614233E0,3.7826288E-1,1.4502167E0,9.929442E-1,1.43149E0,-2.020486E-1,8.429192E-1,-8.955721E-1,1.6411893E0,5.7313406E-1,-8.184739E-1,-1.1089532E0,1.5101539E0,6.8349177E-1,1.525593E0,-7.250986E-1,4.882344E-1,-1.6508146E-1,1.3033265E0,-1.3140272E0,-5.8614427E-1,-1.4985249E0,1.4394639E0,-1.2367676E0,-2.4463692E-1,8.4643245E-1,-1.6045389E0,-1.1779699E0,1.2455847E-1,1.325247E0,-2.623521E-1,-7.259731E-1,8.089344E-1,-1.8677893E-1,-1.3946059E0,2.531615E-1,-1.3677243E0,-7.826022E-1,1.176199E0,1.4362922E0,-7.816511E-1,6.639704E-1,1.5236297E0,4.4438776E-1,1.1885583E0,1.4438921E0,2.9899934E-1,-8.617165E-1,2.6685497E-1,3.1974816E-1,1.0947098E0,-9.703734E-1,9.702534E-1,-2.7191657E-1,8.428622E-1,-9.5266426E-1,8.059828E-1,-1.3119767E0,-6.769972E-1,2.5189596E-1,-1.2003186E0,9.5572793E-1,-2.029037E-1,1.4136863E0,3.1230202E-1,-1.3332016E0,1.10729E0,-2.7024382E-1,-1.2104663E0,-1.5003338E0,2.530045E-1,-1.2851886E0,4.980276E-1,8.542083E-2,-1.240922E0,9.991256E-1,-1.1687334E0,-1.6571578E0,-3.6664376E-1,-1.3520937E0,-7.6886153E-1,-5.243881E-1,6.0191303E-1,4.5197412E-1,1.3896009E0,1.0932673E0,-8.094958E-1,-1.3861485E0,1.4433792E-1,-2.7841566E-2,1.1792063E0,6.1958873E-1,-7.600293E-1,-1.4998726E0,-5.418095E-1,-3.6460248E-1,8.9399433E-1,-5.133755E-1,-1.5849015E0,-1.4000115E0,-4.389069E-1,1.7500201E-1,1.4477628E0,-1.1327788E0,-1.5664414E-1,5.8242595E-1,-8.029537E-1,1.2519153E0,4.2260104E-1,1.4514437E0,2.5185108E-1,-3.4637436E-1,5.6240296E-1,-1.1614425E0,-1.8698752E-1,5.8797877E-2,1.6135222E0,8.0446154E-2,1.1760753E0,1.2159637E0,6.676776E-1,-1.0127953E0,8.594997E-1,4.8088346E-2,1.1917055E0,-5.01383E-1,1.2318524E0,-8.289433E-1,9.55903E-1,-4.1879594E-1,-1.3352032E0,3.0330393E-2,1.2249653E0,-1.4479449E0,-1.0226269E0,-9.0598935E-1,1.9258393E-1,6.1530566E-1,1.5043223E0,-1.3909624E0,-9.796404E-1,3.5292003E-1,1.5263101E0,-1.0128618E0,1.1920987E-1,-1.3096434E0,-2.8497586E-1,-1.5614362E0,-1.4481107E0,-1.4528668E0,-9.474787E-1,-3.9055622E-1,1.1797109E0,2.4075611E-1,-1.5794741E0,-1.3553481E0,-8.791245E-1,1.1402767E0,-4.3625608E-1,-1.2537538E0,5.2723384E-1,-1.6787157E0,-3.8773322E-1,-1.018236E0,5.6929237E-1,-1.3629568E0,1.2221154E0,-5.691997E-1,-1.5067238E0,2.0735568E-1,-1.0751755E0,-4.4514515E-2,1.2306027E0,-2.481812E-1,1.0077782E0,1.401364E0,-9.7289664E-1,1.5039744E0,3.5277253E-3,-1.2493457E0,1.1156381E0,-1.4956555E0,-3.068923E-1,9.156555E-1,-4.688255E-1,-8.1927E-1,8.5520524E-1,1.2730933E0,-3.457999E-1,-1.6020166E0,-5.9724134E-1,-6.894324E-1,8.433976E-1,-1.2277068E-1,1.1126597E0,-1.4518508E0,-8.326093E-2,-7.886053E-1,1.724705E-1,-3.8303503E-1,7.2112256E-1,-1.0216666E0,1.0343689E0,1.2803683E0,-1.5517175E-1,1.225705E-1,1.2068123E0,6.8603504E-1,1.4624364E0,-6.978226E-1,6.62599E-1,2.699128E-1,-8.716419E-1,9.7572494E-1,-9.360899E-4,-1.6031943E-1,-1.3040732E0,-1.1251707E0,4.3907288E-1,-1.8572313E-1,1.1492902E0,1.1041669E0,-8.084286E-2,1.2643847E0,-6.8790585E-1,2.2145593E-1,1.2688321E0,3.7531504E-1,1.224405E0,-1.1969976E0,-5.6435764E-1,1.3221128E0,1.168382E-1,1.4281493E0,3.4170276E-1,-7.6885086E-1,1.1336654E0,-1.5303302E0,1.8297996E-1,-9.278414E-1,1.0178475E0,-7.261373E-1,5.094785E-1,-1.4812703E0,3.4248796E-1,-1.478654E0,-4.6255767E-1,-1.1938925E0,6.044393E-1,-9.981163E-1,3.3607727E-1,-7.7525127E-1,8.4134024E-1,-1.4163959E0,-8.9096916E-1,-4.6444413E-1,-1.380721E0,-1.0173914E0,9.1889954E-1,-1.136206E0,-3.1737012E-1,4.467857E-1,-1.4095067E0,-1.3620821E0,-7.1477234E-1,1.0021014E0,-5.59625E-1,-1.5629419E0,-4.5531785E-1,-1.3605169E0,-1.5361736E0,-1.4621238E0,-3.998227E-1,-1.2283574E0,-2.1477896E-1,6.661967E-1,-2.1756585E-1,-1.422697E0,-8.0676025E-1,-9.941066E-1,2.531726E-1,1.2182864E0,2.5884772E-3,-6.665337E-1,8.055832E-1,-1.3110718E0,4.5477203E-1,-1.0865384E-1,8.88642E-1,-6.06199E-1,-1.6997237E0,-1.5023019E0,-1.1822126E0,-1.0796224E0,-2.3053612E-1,-1.5393783E0,-3.266857E-1,1.4776663E0,-3.5248256E-1,5.8181196E-1,-1.2706982E0,-1.1198096E0,4.6924943E-1,1.3455206E0,-8.3818965E-2,1.0560333E0,-6.312517E-1,-2.3477972E-1,1.1235203E0,1.4927151E0,1.1596727E0,-1.4028236E0,-1.3563855E-1,-1.18475445E-1,-1.3822669E0,-1.5849009E0,-5.1913387E-1,1.2964479E0,-2.0045115E-1,-9.353974E-1,1.1117474E0,-3.131849E-2,-1.5012597E0,1.3006352E0,9.0747565E-2,2.5030756E-1,1.3919526E0,-1.1468621E0,7.6943195E-1,5.7571806E-2,1.2723789E0,-1.5043099E0,-3.9305575E-2,5.9481883E-1,-9.256444E-1,5.7426E-1,-6.384696E-1,-9.2693627E-1,4.8058584E-1,4.1048456E-2,9.444775E-1,-1.1665993E0,9.9680483E-1,9.462923E-1,1.3619384E0,-5.55464E-1,8.9607483E-1,-6.433103E-1,6.418413E-1,4.8886588E-1,1.3503594E0,7.570711E-2,9.725432E-1,1.3438358E0,1.5134925E0,-1.1314386E0,4.3711326E-1,3.0626103E-1,1.296222E0,-2.6568085E-1,1.0731736E0,-1.3188088E-1,-1.1322517E0,-3.4671894E-1,1.1415964E0,9.054143E-1,-3.9157087E-1,-1.4012096E0,6.0339123E-1,-1.3409798E0,5.4001594E-1,-1.2636416E0,2.77823E-1,-3.1434458E-1,1.0574473E0,-3.5352987E-1,1.3983116E0,9.739118E-2,1.2828954E0,-7.143523E-1,1.3626676E0,-2.7969828E-1,9.57164E-1,7.81174E-1,1.4866775E0,1.1483202E0,-2.9593673E-1,7.649503E-1,1.3489617E0,-1.8373422E-1,6.6621596E-1,1.3696929E0,6.006669E-1,-1.2410512E0,3.2462165E-1,-1.1094691E-1,-1.0654296E0,-8.78699E-1,6.5691453E-1,1.7139057E-2,1.1087605E0,-8.8632274E-1,5.410414E-1,1.37398E0,-1.8244416E-1,-1.5346541E0,-7.861619E-1,-1.4928607E0,-7.3825413E-1,6.1644137E-1,-9.9287635E-1,-3.9225867E-1,-1.30326E0,-1.1251175E0,1.174448E0,-1.2790058E0,-6.3643867E-1,7.6699644E-1,-8.1012005E-1,3.8303703E-1,-1.0988295E0,1.0398676E0,-6.114919E-1,-1.4217463E0,4.923078E-1,1.5803943E0,-9.891089E-1,-2.7572224E-1,-1.4833583E0,-1.4153554E0,-1.330177E-1,1.3713349E0,1.23326436E-1,-1.2842678E0,-6.74358E-1,-8.0277574E-1,4.95892E-1,6.09134E-1,-1.4013216E0,-6.718542E-1,-1.4299355E0,-1.3968474E0,-8.3162993E-1,9.8627067E-1,-9.051699E-1,-5.9191453E-1,1.3124086E0,-7.612261E-1,1.2141527E0,-1.5468631E0,-1.2469747E0,-4.7736874E-1,-1.538566E0,-1.50117E0,-1.1455485E0,-1.3454654E0,4.0119058E-1,1.4138191E0,-6.8355334E-1,9.0380573E-1,-1.6296974E0,-4.6280533E-1,7.565316E-1,-1.4759349E0,-7.224794E-1,-1.3381462E0,7.671809E-2,1.1541145E-1,-1.1038525E0,1.2448574E0,-1.4859139E0,4.8174313E-1,-7.6400435E-1,-8.4526265E-1,5.862534E-1,1.536647E0,-6.149677E-2,5.692017E-1,-1.3580064E0,-1.74941E0,-1.0667967E0,-1.5220248E0,-9.742041E-1,-1.4588187E0,-9.0849614E-1,-1.3031871E0,-3.972393E-1,-5.6834984E-1,4.1262612E-1,-1.2904158E0,4.7224754E-1,-1.4352518E0,-4.44652E-1,-1.390128E0,-5.181592E-1,9.519714E-1,-7.47918E-1,1.4553673E0,1.9996773E-1,1.4390874E0,4.7932735E-1,-1.0029842E0,6.106851E-1,1.2722242E0,5.6729455E-2,1.5033591E0,7.792544E-2,8.2246435E-1,1.3840764E0,-1.4882627E0,-2.9576346E-1,-6.7234087E-1,-1.6253872E0,5.759876E-1,1.402874E0,-1.1586112E0,1.6913031E-1,1.0195425E0,-6.166447E-1,7.589822E-1,-6.0246485E-1,1.0238436E0,-6.2131166E-1,7.845246E-1,1.5208951E0,-1.4715276E0,-4.9181312E-1,1.4037925E0,6.2191457E-1,-9.1841966E-1,-1.5744648E0,-1.9109581E-1,1.1747364E0,-1.1067634E0,-7.06797E-2,7.6207143E-1,-7.4528635E-1,-1.001511E0,1.1238471E0,-1.2366939E0,